<?xml version="1.0"?>
<opencv_storage>
<opencv_ml_svm>
  <format>3</format>
  <svmType>C_SVC</svmType>
  <kernel>
    <type>LINEAR</type></kernel>
  <C>1.</C>
  <term_criteria><epsilon>1.0000000000000000e-02</epsilon>
    <iterations>1000</iterations></term_criteria>
  <var_count>2304</var_count>
  <class_count>6</class_count>
  <class_labels type_id="opencv-matrix">
    <rows>6</rows>
    <cols>1</cols>
    <dt>i</dt>
    <data>
      0 1 2 3 4 5</data></class_labels>
  <sv_total>15</sv_total>
  <support_vectors>
    <_>
      -1.11231740e-04 -6.87669817e-05 1.29893364e-04 5.24571915e-05
      -2.09077916e-04 -8.68579373e-05 8.60205328e-05 1.29874970e-04
      -6.57614146e-05 -3.65938649e-05 -7.55631163e-06 -1.45366166e-05
      1.76147223e-04 3.59043566e-04 2.07408637e-04 3.07977723e-04
      2.91434902e-04 2.63034104e-04 2.48237251e-04 2.40855690e-04
      -1.44264914e-05 -3.98554912e-05 1.80001181e-04 3.42218205e-04
      3.52698233e-04 2.75802129e-04 3.52722476e-04 2.60631234e-04
      2.33754326e-04 2.48659257e-04 3.13108176e-04 1.69164618e-04
      -3.85326985e-06 4.77879767e-05 -4.43965509e-05 -1.56233102e-04
      -4.79141818e-05 -1.43374622e-04 -1.87657279e-04 -3.28090246e-05
      -1.08173263e-04 -1.11044668e-04 8.06585376e-05 6.19042039e-05
      2.16455519e-04 3.88572691e-04 1.33235721e-04 1.68023907e-04
      -3.58143036e-04 -3.26712820e-04 -3.99945129e-04 -3.37672420e-04
      -9.97299794e-05 5.08532758e-05 5.20912135e-06 1.28255677e-04
      6.15182944e-06 1.56961269e-05 -5.69484837e-05 2.88770068e-04
      3.57297104e-04 3.55252094e-04 1.40042815e-04 3.03705805e-04
      4.17008850e-04 3.02588684e-04 3.06772476e-04 1.85843659e-04
      2.08326655e-05 -1.69351741e-04 -2.09450991e-05 9.62349804e-05
      -1.35573253e-04 -8.53040838e-05 8.50935830e-05 5.94015764e-05
      -1.35473128e-05 1.20835255e-04 5.57204403e-05 5.99107807e-05
      5.34767923e-06 6.35450924e-05 -6.68219000e-05 -2.04586671e-04
      -1.58071358e-04 -2.19497932e-04 8.24082235e-05 3.42099607e-04
      1.21001431e-04 2.32877326e-04 3.04706715e-04 5.46040072e-04
      5.08701545e-04 5.83877205e-04 5.05861477e-04 6.12672535e-04
      -4.34535235e-04 -3.71294329e-04 -5.43773465e-04 -4.35553171e-04
      -3.05494264e-04 -2.61548499e-04 -3.48489884e-05 9.57939119e-06
      5.88973671e-05 8.57613704e-05 9.08930633e-06 3.10009607e-04
      3.26492853e-04 2.73062586e-04 2.17795954e-04 2.80844251e-04
      2.35691798e-04 2.67975527e-04 2.56141182e-04 1.97008863e-04
      9.10356248e-05 -1.68096216e-04 -2.05200107e-04 -3.47019493e-04
      -3.97560420e-04 -3.02698085e-04 -3.02457396e-04 -2.32380509e-04
      -3.15653364e-04 -2.23060546e-04 -2.88969932e-05 -9.51515904e-05
      -4.96663197e-05 9.40266982e-05 5.04963236e-06 -1.23878723e-04
      -5.54333201e-05 -1.12474452e-04 -1.19859124e-05 1.05380685e-04
      3.31836549e-04 4.79284150e-04 4.54070076e-04 6.10842661e-04
      6.85652660e-04 8.80687905e-04 1.02963508e-03 7.20742682e-04
      -2.64440052e-04 -2.96330720e-04 -4.74178232e-04 -3.13696597e-04
      -3.48001486e-04 -3.80581740e-04 -1.76390444e-04 1.16809060e-04
      -5.77779647e-05 -1.73842534e-04 1.62482718e-06 3.33941804e-04
      3.60057107e-04 3.04183253e-04 3.66894936e-04 2.95531470e-04
      3.35271092e-04 4.15122602e-04 2.81344401e-04 2.65078124e-04
      9.01480962e-05 6.02278014e-05 -1.02686805e-04 -3.47482826e-04
      -6.34387077e-04 -5.06344659e-04 -4.69011982e-04 -4.94385662e-04
      -3.86729196e-04 -1.87241763e-04 -6.89408043e-05 -1.00935453e-04
      -7.73471038e-05 7.86247329e-05 -1.20072036e-04 -1.49268817e-04
      -4.28234380e-05 9.51463080e-05 3.41133127e-04 2.27860583e-04
      1.63726145e-04 2.89903139e-04 2.24497009e-04 2.48691242e-04
      2.43160568e-04 4.16768278e-04 5.83503046e-04 6.29092043e-04
      1.20972079e-04 -2.51013353e-05 -3.90164758e-04 -5.27900062e-04
      -4.92856605e-04 -4.32264555e-04 -2.40984460e-04 -1.82736141e-04
      -4.83958975e-05 -1.17011230e-04 8.56688639e-05 2.67444149e-04
      2.37616405e-04 4.26601036e-04 3.55169643e-04 2.86509370e-04
      4.09590430e-04 3.02172906e-04 6.26569163e-05 -8.21225913e-05
      -1.76679881e-04 -3.47394758e-04 -3.67108412e-04 -2.09620208e-04
      -2.58024927e-04 -3.95754672e-04 -4.77445981e-04 -3.81445221e-04
      -2.60881818e-04 -1.37531519e-04 1.95103421e-04 4.18820186e-04
      4.88926307e-04 3.09944968e-04 1.21791796e-04 -1.82753676e-04
      3.64088191e-05 3.60916920e-06 -3.02917266e-04 -1.55379355e-04
      -1.77678550e-04 -1.29202526e-04 -2.43357732e-04 -3.26756679e-04
      -4.45710502e-05 1.05315075e-05 3.86088563e-04 2.84316076e-04
      5.43200076e-06 -1.14499322e-04 -4.10555484e-04 -2.89693882e-04
      -2.63304275e-04 -2.81691784e-04 -1.04708015e-04 -2.01863731e-05
      -5.79743682e-05 -9.69736138e-05 1.39496260e-04 3.61676823e-04
      3.42093612e-04 3.53641110e-04 2.57029809e-04 2.28281351e-05
      1.24120081e-04 -3.29396562e-06 1.11758585e-04 2.76779640e-04
      4.00884310e-05 2.87272065e-04 3.60495294e-04 -1.44395453e-04
      -2.19035122e-04 -3.60515434e-04 -4.54122142e-04 -4.78596368e-04
      -3.90794390e-04 -2.07447709e-04 -9.52728951e-05 2.08436541e-04
      5.01616742e-04 4.33311332e-04 4.82585107e-04 2.19067166e-04
      -1.71139996e-04 -2.58904038e-04 -3.45514796e-04 -4.85193363e-04
      -2.53202539e-04 -3.21203726e-04 -7.71899940e-05 -2.47789168e-04
      -1.89359358e-04 -2.79862033e-05 1.76955771e-04 2.42355512e-04
      -3.91570247e-05 9.99575132e-05 1.84925666e-05 -1.19759177e-04
      8.79391973e-06 -1.47081533e-04 -7.60202020e-05 -1.10814850e-04
      -1.90829189e-04 -1.40551128e-04 1.61690026e-04 4.61437739e-04
      6.61113590e-04 5.09971112e-04 4.90033184e-04 3.54440272e-04
      2.97297316e-04 1.20207485e-04 7.09400820e-06 1.42085773e-04
      7.09410087e-05 3.36849393e-04 5.02281880e-04 1.07822882e-04
      -3.88858403e-04 -6.79235789e-04 -7.81329232e-04 -7.48035964e-04
      -6.71509013e-04 -4.19597927e-04 1.50898941e-05 1.93618398e-04
      2.47836724e-04 3.44449247e-04 4.36864822e-04 8.81376982e-05
      -1.36891991e-04 -2.91789009e-04 -3.80657555e-04 -5.33461338e-04
      -3.38077138e-04 -3.58384801e-04 -4.54564666e-04 -1.82517557e-04
      -3.11770680e-04 -2.31686136e-04 2.09451482e-05 2.40753317e-04
      -3.52411007e-05 -2.30562546e-05 6.11338546e-05 1.35567912e-04
      1.06544758e-04 4.15031609e-05 1.13720394e-04 -1.17711597e-05
      7.18999290e-05 2.64612259e-04 4.98577487e-04 3.91612150e-04
      2.78402469e-04 2.95645121e-04 4.32578876e-04 1.24917700e-04
      -7.29919657e-06 7.11440298e-05 -1.52140230e-04 8.46940311e-05
      2.20333546e-04 2.17520006e-04 3.19881656e-04 -2.44724128e-04
      -8.83213419e-04 -9.51790891e-04 -1.09379448e-03 -8.86449008e-04
      -6.11452211e-04 -5.04581782e-04 -5.98170736e-05 -4.04313568e-07
      1.49843894e-04 1.96507142e-04 2.92512472e-04 1.76563958e-07
      -4.42734672e-05 -1.09798450e-04 -3.28603463e-04 -4.12845955e-04
      -2.48393364e-04 -4.21427947e-04 -2.41921647e-04 -2.04623124e-04
      -1.92829291e-04 3.86993543e-06 2.63267197e-04 4.16801340e-04
      -6.52567105e-05 -1.51527829e-05 -2.39354667e-05 -1.41979690e-04
      -4.36461269e-05 8.54733571e-06 4.30589353e-05 1.45937054e-04
      9.70193287e-05 4.45371697e-05 3.64771986e-04 2.58853892e-04
      2.03648553e-04 2.93143967e-04 3.63352592e-05 -2.88866031e-05
      -3.51712020e-04 1.05011874e-04 4.30797718e-06 1.08715285e-05
      2.55998439e-05 -7.39834286e-05 1.81701216e-05 -4.92504390e-04
      -8.89597577e-04 -6.86416985e-04 -6.10409887e-04 -3.90796777e-04
      -1.53995919e-04 -2.15009335e-04 5.71921119e-05 4.36702285e-05
      -9.86408941e-06 1.75251960e-04 1.10453257e-04 2.63601687e-04
      5.11039725e-05 1.12267362e-05 8.06661628e-05 -1.43087600e-04
      -9.86008672e-05 -2.31393802e-04 -1.93250642e-04 -2.52744620e-04
      -2.55547755e-04 7.51964471e-05 3.87515407e-04 3.59323021e-04
      5.57840103e-05 2.33953382e-04 -3.91731810e-05 -7.98742076e-06
      -1.32052563e-04 -2.44995567e-06 4.03419690e-05 8.54709142e-05
      1.11568937e-04 8.39219065e-05 1.01291458e-04 4.25255457e-05
      -4.59042531e-05 -1.10165405e-04 -7.00673772e-05 -2.76815903e-04
      -5.57160063e-04 -5.92244673e-04 -4.38209798e-04 -3.16721242e-04
      -1.30078333e-04 1.25335384e-04 3.27941467e-04 -1.33704671e-04
      -7.63684278e-04 -7.14473485e-04 -5.55498526e-04 -6.66104257e-04
      -6.98020216e-04 -5.58977015e-04 -1.56140697e-04 -2.04696786e-04
      -4.85990568e-05 4.87425248e-04 3.27445625e-04 3.65182786e-04
      3.94131202e-04 1.88920822e-04 5.02481649e-04 1.56269729e-04
      1.42350546e-04 -2.24240692e-04 -4.25611734e-06 -1.74718036e-04
      1.83353877e-05 2.57328356e-04 3.72216222e-04 3.70839814e-04
      -2.00178561e-04 4.88059886e-05 -2.38392066e-04 -2.05225471e-04
      -2.75370665e-04 7.14005182e-06 -2.61698529e-04 3.91456997e-05
      9.26864814e-05 1.52618275e-04 4.02288970e-05 1.24235637e-04
      -1.06856656e-04 -1.84935983e-04 -3.92291346e-04 -6.31236180e-04
      -4.97815083e-04 -6.69688859e-04 -7.81243842e-04 -7.15197239e-04
      -6.66854321e-04 -3.22002714e-04 1.52609573e-04 2.77158906e-05
      -9.27515735e-04 -9.40841390e-04 -9.56265721e-04 -8.41671543e-04
      -9.05106834e-04 -9.26751760e-04 -5.96982543e-04 -2.98739033e-04
      7.91894054e-05 1.57555216e-04 3.41012928e-04 4.56806127e-04
      2.28252204e-04 3.37904712e-05 1.53887813e-04 1.48965846e-04
      6.31150385e-07 5.17008739e-05 1.40448174e-05 -4.21724399e-05
      1.87008234e-04 1.20348421e-04 2.26514705e-04 4.98509558e-04
      2.09868755e-04 8.75905534e-05 -2.21287507e-07 2.01062157e-05
      -5.56508458e-05 3.23587592e-05 7.37473965e-05 4.73722248e-05
      -2.00148148e-04 -2.07480029e-04 -1.19139913e-04 1.34340953e-05
      -8.20080459e-05 -2.71277415e-04 -1.72449058e-04 -5.15430933e-04
      -8.20775866e-04 -8.71421478e-04 -8.88399547e-04 -1.00771338e-03
      -9.08132643e-04 -5.26036834e-04 -7.86526944e-04 -3.86851054e-04
      -9.77147021e-04 -1.20040181e-03 -1.19272631e-03 -1.00522116e-03
      -8.13420804e-04 -7.83973257e-04 -5.27340744e-04 -2.14837419e-04
      1.38292789e-05 5.60904919e-05 1.03530481e-04 6.74358671e-05
      1.72283500e-04 2.11044724e-04 1.60051481e-04 -2.22791452e-04
      1.24358892e-04 -8.86281341e-05 -2.74637423e-04 -2.19991940e-04
      -1.28383850e-04 -8.56366314e-05 3.13911529e-04 4.24295344e-04
      -2.28847093e-05 1.99539136e-04 -7.03664846e-05 -1.75232577e-04
      -3.45246663e-05 -3.01244814e-04 -9.43653322e-06 -7.70742845e-05
      -1.37287818e-04 9.34936543e-05 -6.54531395e-05 -6.72891256e-05
      -1.90478662e-04 -2.11788079e-04 -4.64488432e-04 -7.61276286e-04
      -9.16268385e-04 -8.90853873e-04 -9.58941528e-04 -1.01784151e-03
      -1.06975611e-03 -1.11324037e-03 -1.14088354e-03 -7.81010662e-04
      -7.43966666e-04 -1.17825076e-03 -9.71493428e-04 -1.13151816e-03
      -9.68266977e-04 -6.26129215e-04 -4.40724631e-04 -1.59998628e-04
      -9.65881700e-05 1.19635668e-04 1.02311766e-04 5.04734744e-05
      -2.64643604e-05 1.11585694e-04 8.77385787e-07 -2.12956831e-04
      1.01752958e-04 -1.06744359e-04 -1.69289051e-04 -1.72501372e-04
      -3.55258468e-04 -4.83917465e-05 1.50194610e-04 5.00753406e-04
      -1.39970929e-04 1.26477215e-04 -2.01733346e-04 -2.59500986e-04
      -1.87751983e-04 -2.97189079e-04 -1.37957031e-04 -1.27147548e-04
      -4.15849718e-05 5.55021834e-05 -5.82571411e-05 -9.01008098e-05
      1.88399117e-05 -9.10793751e-05 -9.37745936e-05 -7.89231504e-04
      -7.38494506e-04 -6.79065590e-04 -8.21138790e-04 -1.02222501e-03
      -1.01877307e-03 -9.09294118e-04 -9.55471303e-04 -9.41362407e-04
      -8.19330744e-04 -1.28639943e-03 -1.03956601e-03 -8.22291593e-04
      -6.82882790e-04 -2.90551630e-04 -2.33104074e-04 -1.23066100e-04
      3.52673196e-05 5.97596445e-05 2.28312609e-04 1.42933946e-04
      1.14402304e-04 9.72160778e-05 4.25895232e-05 2.26569566e-04
      3.07353097e-04 1.29272143e-04 5.45516086e-05 2.46255822e-05
      -8.99011939e-05 -1.78294194e-05 1.17513620e-04 4.94717096e-04
      -3.56995224e-05 2.71779427e-05 -1.67935694e-04 -1.92539956e-04
      -2.06586468e-04 -1.78783826e-04 -7.34030618e-05 -1.23697639e-04
      -2.12600480e-05 1.89388229e-05 1.26939995e-04 7.30726606e-05
      -8.15560907e-06 -2.31641912e-04 -3.24383669e-04 -5.75060141e-04
      -5.18574321e-04 -5.00902883e-04 -6.49579277e-04 -1.04350888e-03
      -9.78704658e-04 -1.00164686e-03 -1.31607801e-03 -1.17638195e-03
      -8.35383777e-04 -1.26748311e-03 -1.20669580e-03 -1.17902015e-03
      -7.26521772e-04 -4.87413548e-04 -2.88263371e-04 -1.53102519e-04
      -9.78429889e-05 2.12386323e-04 3.60969570e-04 -1.50932960e-04
      1.06572246e-04 2.38905141e-05 1.39893891e-04 3.22882124e-06
      1.73557099e-04 8.12908838e-05 8.04683368e-05 1.30442757e-04
      -4.48623505e-05 6.77231947e-05 2.87173083e-04 5.67088660e-04
      4.13677080e-05 4.66179154e-05 -2.08705285e-04 -1.64332887e-04
      -2.06614888e-04 -1.17989279e-04 -4.31956432e-05 1.67087230e-04
      1.22707526e-04 2.38463312e-04 1.20652345e-04 -7.63321077e-05
      -3.70821690e-05 -1.91025785e-04 -1.56780618e-04 -1.42252306e-04
      -3.19655024e-04 -4.50440304e-04 -3.78748751e-04 -4.72731772e-04
      -9.41619102e-04 -1.14083569e-03 -8.79631902e-04 -8.65669746e-04
      -5.97885693e-04 -7.96585169e-04 -1.18316046e-03 -1.04002142e-03
      -8.23281298e-04 -5.68091753e-04 -3.21774918e-04 1.34435584e-04
      1.31026100e-04 2.97363731e-04 2.88980926e-04 2.62010552e-04
      4.19264077e-04 3.66812455e-04 1.85812853e-04 1.11309513e-04
      1.73603621e-04 9.13335898e-05 1.81797761e-04 -7.55377914e-05
      -3.37248464e-04 -1.59328352e-04 1.26656407e-04 3.23367043e-04
      -4.05431274e-05 2.29024270e-04 -8.53173697e-05 2.72750895e-05
      -5.38818567e-05 -9.80677360e-05 -1.18186144e-04 9.21641913e-05
      -1.68119386e-05 -2.93873563e-05 -1.64175814e-04 -7.05616330e-05
      -1.13528047e-04 -1.67598177e-04 -2.90103315e-04 -5.10248647e-04
      -3.85329244e-04 -3.48674046e-04 -2.57143372e-04 -4.63548320e-04
      -5.62152767e-04 -5.13864623e-04 -5.55660343e-04 -5.92074881e-04
      -4.50041436e-04 -4.96705703e-04 -1.10537466e-03 -1.02866918e-03
      -7.15835544e-04 -4.15772258e-04 -1.70882427e-04 1.36726128e-04
      3.26566020e-04 4.90053848e-04 3.26944399e-04 1.37964307e-04
      5.23195959e-05 1.73152439e-04 3.10428324e-04 2.59782042e-04
      2.48167868e-04 4.88891455e-05 9.81704798e-05 -1.62889599e-04
      -2.44506900e-05 -5.45274124e-05 2.47973920e-04 4.43410536e-04
      -3.31479387e-04 2.36092365e-06 -1.63181190e-04 -2.15523760e-04
      -3.37838952e-04 -1.79990093e-04 1.41221199e-05 6.37540361e-05
      7.94719654e-07 -8.58649728e-05 -7.42869597e-05 -2.02997791e-04
      -8.05885284e-05 2.66638835e-05 1.81828058e-04 1.22049416e-04
      1.11380316e-04 1.91602696e-04 2.05817239e-04 -1.57574003e-04
      -2.67213676e-04 -1.34434711e-04 -4.95255563e-06 -3.47223628e-04
      -2.76712235e-04 -2.75714818e-04 -7.90262420e-04 -6.68322260e-04
      -5.20423637e-04 -2.06764089e-04 9.73464266e-05 4.88849299e-04
      6.33128744e-04 8.52705969e-04 4.99029120e-04 8.33703671e-05
      2.91283959e-05 1.58019146e-04 2.53920793e-04 1.20711687e-04
      1.27829393e-04 -1.87444766e-05 -1.13916634e-04 -3.84302606e-04
      -3.29888659e-04 -1.70148822e-04 4.53028988e-05 3.47025198e-04
      -2.26933684e-04 1.67522827e-04 -4.18543932e-05 -7.95200467e-05
      -1.82746691e-04 -1.45297556e-04 8.12047729e-05 2.63939844e-04
      3.84537678e-04 2.54100218e-04 1.18350988e-04 2.20318470e-04
      2.22451607e-04 4.59333271e-04 4.05220082e-04 3.74970841e-04
      3.45951761e-04 4.16981202e-04 4.26980463e-04 2.52471626e-04
      -9.94159636e-05 -9.45721986e-05 -3.25367437e-05 -2.60695873e-04
      -1.06990468e-04 7.80454684e-06 -2.81015586e-04 -1.99403075e-04
      -7.68257523e-05 -8.18318731e-05 2.99442065e-04 5.35502273e-04
      6.30354160e-04 7.05877086e-04 2.55271763e-04 1.81398005e-04
      3.14468489e-04 1.91965431e-04 3.37721925e-04 1.23410267e-04
      2.09900230e-04 1.39079682e-04 5.74515543e-05 1.06682028e-05
      -1.57960792e-04 -1.07189262e-04 -4.49465479e-05 2.97219813e-04
      -5.18313173e-05 1.18016425e-04 3.18550738e-05 1.46978255e-05
      -2.93598532e-05 -1.31879760e-05 1.31724446e-04 7.62717391e-05
      2.36615320e-04 1.34042988e-04 2.50769172e-05 3.39988357e-04
      4.37208946e-04 5.39887755e-04 5.72011922e-04 4.91389481e-04
      4.67157923e-04 5.97778941e-04 7.39449228e-04 4.53755638e-04
      2.43055911e-05 8.27398617e-05 1.65074671e-05 4.48472965e-05
      2.35809694e-05 1.00165249e-04 -6.04168690e-06 -1.45949918e-04
      2.20282571e-04 2.36407257e-04 4.26668383e-04 4.87211073e-04
      5.75988088e-04 7.27329636e-04 2.66400602e-04 7.97073299e-05
      2.85980186e-05 -1.23415201e-04 5.89551055e-05 4.46941995e-05
      3.44507600e-04 1.10659690e-04 1.36487084e-04 4.23279562e-05
      -2.24015806e-04 -1.88717768e-05 8.49785065e-05 3.61833867e-04
      -2.07381254e-05 5.15269203e-05 -4.49077997e-05 3.90330133e-05
      -1.04460916e-04 -5.53376267e-05 2.81927933e-04 1.99783768e-04
      1.46224033e-04 2.18065543e-04 1.40774180e-04 1.74781002e-04
      3.25630710e-04 3.78269760e-04 4.60214011e-04 2.56725209e-04
      4.99705493e-04 5.05843142e-04 5.68321557e-04 4.26081184e-04
      3.77436460e-04 3.86972679e-04 3.75519419e-04 4.68060316e-04
      2.43550734e-04 1.47459272e-04 6.40126600e-05 -1.75257446e-04
      1.27705171e-05 -2.83177669e-05 1.76381916e-04 4.07268468e-04
      5.78882871e-04 7.00081233e-04 4.20227996e-04 -3.75399577e-05
      2.33629598e-05 -1.08739623e-04 5.82593129e-05 1.74418499e-04
      2.31393817e-04 -1.31615598e-05 3.00341958e-06 -2.89322081e-04
      -2.45493924e-04 6.55003096e-05 2.01769450e-04 4.68487560e-04
      3.50015122e-04 2.76548177e-04 8.77293933e-05 -3.47975401e-06
      1.19064796e-04 -7.28782652e-06 1.93917112e-05 3.77392280e-04
      3.16647347e-04 3.47232126e-04 2.05000251e-04 2.02394993e-04
      3.97308788e-04 4.44483798e-04 5.25479787e-04 5.82740468e-04
      4.05782339e-04 5.40423905e-04 6.76191645e-04 6.01942011e-04
      3.77265445e-04 2.09749836e-04 2.78272753e-04 4.84490389e-04
      2.83813046e-04 -6.63519895e-05 3.18443854e-05 -1.72066473e-04
      -3.37275211e-04 -9.35078860e-05 1.67720122e-04 4.70735307e-04
      6.40778628e-04 7.72750296e-04 3.52345582e-04 -8.26502219e-05
      -1.21830548e-04 -1.16724019e-04 1.58308729e-04 1.53790330e-04
      1.86571619e-04 5.99897357e-05 -1.50439941e-04 -2.30153295e-04
      -1.61225122e-04 -4.08168598e-05 1.79686351e-04 5.72692254e-04
      1.67623817e-04 2.05079952e-04 1.33235109e-04 -2.37705935e-05
      1.93023967e-04 2.11848223e-04 1.87258811e-05 4.73059481e-06
      2.08251018e-04 1.18432516e-04 1.22423196e-04 1.18682423e-04
      2.04577416e-04 2.89116346e-04 3.78628232e-04 4.74656437e-04
      4.93017491e-04 3.14926583e-04 4.12904221e-04 5.66508970e-04
      4.03622311e-04 1.24756436e-04 8.22804359e-05 2.56629282e-04
      1.56068083e-04 3.28353440e-06 1.77543901e-04 -1.61162214e-04
      -3.57315817e-04 -4.05683706e-04 -2.37338958e-04 2.01734365e-04
      4.03102604e-04 4.55210858e-04 1.48755265e-04 2.24770083e-05
      -1.56674447e-04 -7.32425178e-05 1.76294838e-04 2.39077453e-05
      1.78311690e-04 1.10819827e-04 9.82737765e-05 -1.90488747e-04
      -1.66018101e-04 -1.68160579e-04 6.52058006e-05 2.16911896e-04
      3.83731851e-04 4.18505078e-04 3.39600433e-06 -2.00276372e-05
      -5.83453184e-05 1.24761034e-04 1.38060452e-04 2.77187501e-04
      2.33038751e-04 1.82613090e-04 1.40030097e-04 4.62163953e-05
      5.21751179e-04 4.25006408e-04 4.42289689e-04 5.42523805e-04
      3.90132889e-04 2.90592696e-04 5.86840441e-04 4.73435473e-04
      4.80477465e-04 2.83788482e-04 1.29396038e-04 2.23727999e-04
      1.16337658e-04 -9.23638872e-05 1.13710004e-04 -9.44696658e-05
      -3.28240625e-04 -3.76012526e-04 -1.36166738e-04 1.24720420e-04
      3.34955228e-04 6.57462282e-04 3.81370715e-04 3.62745050e-04
      3.84078536e-04 1.46408100e-04 5.76977936e-06 -2.83670437e-04
      -3.12903539e-05 9.79051947e-06 1.90187129e-04 -3.75674572e-05
      -2.28202814e-04 -1.05391133e-04 5.64437396e-05 3.15137004e-04
      3.64465435e-04 4.41819982e-04 -4.09423728e-06 -9.41675753e-05
      2.59440512e-05 -8.06865955e-06 3.92502916e-05 1.01335296e-04
      1.10902598e-04 8.61076187e-05 2.58314976e-05 1.48213177e-04
      3.15300218e-04 5.05559787e-04 5.63677575e-04 4.83006093e-04
      5.18551387e-04 4.89719561e-04 5.06018929e-04 7.28607818e-04
      4.75417095e-04 1.70088766e-04 2.35304746e-04 2.72105972e-04
      1.08406290e-04 6.45323526e-05 1.45642814e-04 2.73187121e-04
      -4.60866540e-05 -1.98180176e-04 2.19351539e-04 3.00276937e-04
      3.26047768e-04 5.27622644e-04 2.50167999e-04 1.70227926e-04
      1.33845620e-04 3.80884121e-05 3.36717021e-05 1.05286097e-04
      3.79909994e-04 1.63825869e-04 -7.14784110e-05 -2.50145968e-04
      -3.47432098e-04 -1.16197780e-05 2.90616415e-04 5.19734866e-04
      2.75667495e-04 2.27762313e-04 9.02113970e-05 -8.20697096e-05
      -1.17001953e-04 -6.21226854e-06 3.91221511e-05 1.00741054e-04
      4.85511337e-05 1.99639078e-04 2.21763585e-05 3.27734713e-04
      5.18527406e-04 4.62830649e-04 4.62234835e-04 5.33601618e-04
      4.30611195e-04 4.39834199e-04 2.14635918e-04 5.57605003e-04
      3.83823237e-04 3.12673976e-04 3.31331597e-04 2.58722539e-05
      7.19461241e-05 -1.54940542e-04 -2.29309662e-04 2.03990829e-04
      -2.13076739e-04 -2.10197570e-04 9.09056325e-05 4.50322877e-05
      1.30551067e-04 5.64846210e-04 4.06991428e-04 2.57319887e-04
      -8.99513980e-05 -9.55066644e-05 6.05035748e-05 -1.66197351e-04
      -1.22563870e-05 -1.55933856e-04 -5.34338506e-05 -9.07524809e-05
      -1.62032666e-04 -2.64116588e-05 8.03051589e-05 4.57918009e-04
      2.24116360e-04 1.77830865e-04 1.53230736e-04 5.23190392e-05
      -4.15684008e-05 4.74275475e-06 9.35526259e-05 1.53771209e-04
      1.85342171e-04 9.82507045e-05 6.00948306e-06 1.13864022e-04
      5.05496457e-04 5.85564761e-04 3.22851731e-04 5.00774011e-04
      2.90011318e-04 5.01822680e-04 2.83693109e-04 5.17955748e-04
      2.05753124e-04 2.18854693e-04 1.95820598e-04 1.88535108e-04
      -1.90991661e-04 -3.39131628e-04 -4.37789509e-04 -2.17380002e-04
      -3.40504630e-04 -3.84587882e-04 -2.38954352e-04 -4.15897302e-05
      9.94039583e-05 3.04981921e-04 2.32703460e-04 1.27522580e-04
      6.24023523e-05 1.74818866e-04 1.89322687e-04 5.37974556e-05
      -1.43945887e-04 -1.34756687e-04 -2.06024793e-04 -3.39625200e-04
      -3.32638127e-04 -3.10841919e-04 -7.07469080e-05 2.91734177e-04
      1.55813657e-04 2.81610468e-04 -1.41442419e-04 1.06417992e-05
      9.65642903e-05 -2.06509794e-05 4.68881699e-05 9.69173016e-06
      -1.03549821e-04 1.05882151e-04 1.87223181e-04 1.55816597e-04
      2.54364335e-04 6.89201872e-04 5.29986864e-04 4.20046592e-04
      6.05048728e-04 2.50466750e-04 -4.22110534e-05 -2.34019371e-05
      1.98287817e-04 2.65265786e-04 2.48127995e-04 3.78655619e-04
      1.47642844e-04 -2.46211159e-04 -3.72780283e-04 -1.91660220e-04
      -3.14359262e-04 -3.61499697e-04 -7.46343576e-05 7.54639041e-05
      2.35689542e-04 3.00957996e-04 2.62373884e-04 -1.04843521e-05
      -3.80478341e-05 -1.93692962e-04 -9.54967036e-05 7.99266782e-05
      -6.17519618e-05 -3.20571795e-04 -2.44870753e-04 -2.52362777e-04
      -1.85831130e-04 -1.36400762e-04 1.74503206e-04 3.70779278e-04
      2.56664120e-04 3.47537425e-04 -6.25688845e-05 4.99164489e-05
      -2.49147979e-05 -2.69936900e-05 -1.60251380e-04 -2.00785988e-04
      -7.75498775e-05 1.28215790e-04 1.38522315e-04 9.30128590e-05
      3.98339413e-04 4.18982119e-04 5.68593270e-04 5.08662255e-04
      2.31204031e-04 2.31771191e-04 3.74216354e-04 2.27536424e-04
      7.81079507e-05 3.14652629e-04 2.67615338e-04 1.13239832e-04
      7.66778030e-05 -1.24283266e-04 -1.59580755e-04 -1.85607452e-04
      -6.69155779e-05 -5.19844121e-04 -1.59698757e-05 2.09857084e-04
      2.72265897e-04 2.50401761e-04 2.43819741e-04 -3.90450514e-05
      -2.87714611e-05 -1.17610893e-04 -3.36889534e-05 -1.22882673e-04
      -9.59056160e-06 -4.01142257e-04 -3.58963589e-04 -3.13842524e-04
      -4.59959760e-04 -3.57113284e-04 -1.07553657e-04 1.62157303e-04
      3.95301671e-04 6.51447801e-04 2.44097828e-04 2.66703835e-04
      1.05272193e-04 1.77756476e-04 7.39401457e-06 7.79276015e-05
      -8.47523406e-05 -5.83977308e-05 7.26136204e-05 6.28984199e-05
      1.53663990e-04 3.51322204e-04 4.23394988e-04 2.91449076e-04
      3.11507058e-04 2.43944582e-04 2.52507249e-04 1.55696849e-04
      2.89189746e-04 1.27048275e-04 2.44470517e-04 1.88657737e-04
      1.24350248e-04 -2.05167089e-04 -2.33010316e-04 -3.16496735e-04
      -1.22490193e-04 -4.94828622e-04 -6.79227669e-05 4.68958788e-05
      1.98514826e-04 3.31657386e-04 1.55225920e-04 7.15894639e-05
      -1.10330759e-04 -2.23976996e-04 -3.35054530e-04 -4.09026659e-04
      -5.19732188e-04 -4.57520131e-04 -5.22934599e-04 -2.93251680e-04
      -4.41431301e-04 -3.86562024e-04 -1.26918618e-04 6.47471243e-05
      3.14051897e-04 5.91975637e-04 3.45966459e-04 2.19235648e-04
      2.38917375e-04 2.43590057e-05 6.42289979e-06 -6.33414384e-05
      -4.67636892e-05 -4.48828032e-05 -1.12288624e-04 4.67582431e-05
      1.21251796e-04 2.51844089e-04 3.67478700e-04 2.35529715e-05
      1.97087807e-04 2.12345287e-04 2.86314869e-04 4.03398182e-04
      2.56819883e-04 1.18778204e-04 2.76006700e-04 2.04384734e-04
      1.95981760e-04 1.93574670e-04 5.48935604e-05 -4.45970218e-05
      2.16216096e-04 -1.29723077e-04 -4.83237382e-05 1.17629876e-04
      2.63174996e-04 5.57624327e-04 4.16609982e-04 1.92294334e-04
      2.06529130e-05 -1.44175065e-04 -8.37353873e-05 -3.55179043e-04
      -5.25107142e-04 -5.29135403e-04 -4.44020960e-04 -2.49624747e-04
      -2.29826590e-04 -1.88678299e-04 -3.80965685e-05 3.30851180e-04
      3.83236882e-04 2.32763035e-04 1.03945953e-04 -6.02757746e-06
      -5.53206410e-05 -1.66184283e-04 -3.73789604e-04 -1.99338130e-04
      -2.42920636e-04 -3.29487346e-04 -1.90862585e-04 -1.12930044e-04
      2.58266547e-04 2.30225080e-04 3.35718360e-04 3.45745735e-04
      1.02844606e-04 8.89466610e-05 1.23864433e-04 1.98630660e-04
      8.90358060e-05 2.24587042e-04 4.24247904e-04 5.74677018e-04
      3.01787280e-04 -5.11263934e-05 -4.22838602e-05 2.36724845e-05
      -1.75825669e-04 7.63898715e-05 -4.51983433e-05 1.91095693e-04
      2.91563862e-04 3.75826989e-04 3.86839645e-04 3.50360526e-04
      3.19400628e-04 1.28218380e-04 -4.98232803e-05 -1.95279019e-04
      -4.36136179e-04 -4.26132407e-04 -5.55898761e-04 -4.21633886e-04
      -3.36574565e-04 -7.25132486e-05 6.87524243e-06 2.75730679e-04
      2.43949689e-04 -5.57664280e-05 -5.91264543e-05 -1.54856734e-05
      6.32590018e-05 4.28572748e-05 -8.99527877e-05 -2.98911327e-04
      -1.60215481e-04 -1.08260188e-04 -1.14261915e-04 6.42986124e-05
      1.04361912e-04 1.22376965e-04 2.72464531e-04 3.14212666e-04
      3.85010353e-04 2.20872724e-04 1.02429818e-04 -9.79717515e-05
      3.00712563e-05 1.64350102e-04 2.85189541e-04 3.92099057e-04
      3.56835168e-04 -1.35388153e-04 -1.00302546e-04 -5.63369504e-05
      -2.65562150e-04 1.54687383e-04 -1.75100824e-04 4.54935827e-04
      3.33731790e-04 6.42278290e-04 4.73734486e-04 7.51177795e-05
      6.76710551e-05 5.36156622e-05 1.42716046e-04 -3.47661626e-05
      -2.16615284e-04 -3.61508311e-04 -3.60480335e-04 -4.79212322e-04
      -3.46307381e-04 -3.26821930e-04 -8.62041124e-05 1.91585292e-04
      1.15950425e-04 2.10202634e-04 -1.50625137e-05 -2.58219479e-05
      -1.84881119e-05 -1.08235465e-04 1.02043150e-05 -4.23996680e-05
      -1.62943266e-04 -2.91069009e-04 1.78277169e-05 1.99325150e-04
      1.06058294e-04 2.81302026e-04 1.71976862e-04 1.65259989e-04
      6.62900857e-05 -9.22788895e-05 -1.00400299e-04 4.57177994e-05
      -8.30994395e-07 8.04291194e-05 2.34758176e-04 4.64528246e-04
      3.86687199e-04 4.72399904e-07 -1.82211064e-04 -1.05994208e-04
      -1.61467091e-04 8.93831821e-05 1.41394994e-05 2.95683945e-04
      3.38263431e-04 4.97312110e-04 4.83697746e-04 2.60120520e-04
      -7.76824163e-06 -1.01184278e-05 8.05743257e-05 -3.36618432e-05
      -9.42859551e-05 -2.15473163e-04 -6.02899054e-05 -1.79951152e-04
      -1.34531292e-04 -9.37568184e-05 -1.29275013e-05 3.52494244e-04
      2.96060840e-04 5.06052165e-04 2.69506447e-04 1.55557587e-04
      1.54065947e-05 -9.89711771e-05 6.25036628e-05 -1.38582924e-04
      -2.61661102e-04 -3.30369367e-04 -8.87077549e-05 -3.90535242e-05
      2.00322116e-04 3.47607536e-04 4.71456588e-04 3.50559741e-04
      2.20525704e-04 -5.76937055e-05 -9.31565592e-05 -1.12280024e-04
      1.05037016e-05 1.95156157e-04 8.45198883e-05 2.39516608e-04
      3.43225693e-04 2.67484011e-05 -1.86940291e-04 -1.94040244e-04
      -1.53615722e-04 -1.86633333e-04 7.13543122e-05 2.83560192e-04
      2.91225675e-04 4.37767070e-04 3.74211901e-04 2.17202658e-04
      7.97457978e-05 1.70666186e-04 1.98263533e-05 6.64313775e-05
      -1.35594208e-04 4.41642806e-05 1.07428357e-04 1.13202805e-04
      1.83043725e-04 2.53069040e-04 2.54970364e-04 6.70259702e-04
      2.15204171e-04 1.94833410e-04 2.58884538e-05 3.47791465e-05
      2.91345204e-04 3.80051439e-04 1.86083940e-04 5.29194258e-05
      -7.33558918e-05 -4.21247023e-05 1.52251683e-04 4.51267813e-04
      2.79860833e-04 2.04253884e-04 3.44301719e-04 3.17188591e-04
      3.38448444e-04 2.71813100e-04 -6.34869284e-05 -1.82510310e-04
      -1.99942981e-04 -3.64962063e-04 1.36344213e-04 1.59974632e-04
      1.59102874e-05 -1.00629739e-04 -2.02416486e-04 -3.79395642e-04
      -4.80185059e-04 -4.21958452e-04 7.59278773e-05 1.32255183e-04
      2.45411618e-04 4.85965342e-04 6.30797411e-04 8.27596959e-05
      3.46185698e-05 9.87820476e-06 -7.66341618e-05 1.36952076e-04
      4.24075952e-05 9.94101210e-05 1.55531205e-04 2.53359642e-04
      2.34105159e-04 2.10249113e-04 4.75412584e-04 6.58729987e-04
      2.49992590e-04 9.66005173e-05 9.64352876e-05 2.00882831e-04
      1.23624210e-04 4.24254948e-04 2.78918451e-04 2.51869842e-05
      -2.03902455e-05 -7.17087387e-05 1.01557256e-04 6.32455121e-05
      -1.47824016e-04 -1.08638624e-05 2.99159001e-04 4.50580177e-04
      5.10172453e-04 4.96646499e-05 -1.43982339e-04 -1.94830974e-07
      -2.34231193e-04 -2.32467486e-04 7.92538558e-05 1.07964057e-04
      -2.94778165e-05 -1.40344113e-04 -4.37983574e-04 -5.15501772e-04
      -5.20869857e-04 -3.19454412e-04 8.06871903e-05 1.73927780e-04
      1.99394577e-04 1.83737327e-04 1.98332142e-04 -4.36943665e-05
      -2.27802913e-04 2.73389264e-06 1.39613141e-04 3.05757596e-04
      2.29657817e-04 -2.84251346e-05 -2.89418276e-05 -2.11484767e-05
      4.27453097e-06 -7.90549166e-05 3.00544052e-04 3.32709315e-04
      3.62731837e-04 3.36558063e-04 1.51894137e-05 1.35808747e-04
      3.73002986e-04 1.60236334e-04 1.37835465e-04 1.55521120e-04
      8.23460941e-05 7.63605494e-05 2.37490152e-04 1.20773417e-04
      -1.94426975e-04 -1.14343911e-05 2.04203534e-04 6.96197851e-04
      1.34334981e-03 5.01833216e-04 -1.55137313e-04 -1.29013759e-04
      -4.44749428e-04 -4.52328270e-04 -2.39389818e-04 3.53686701e-05
      -1.56906157e-04 -2.94230616e-04 -5.07086050e-04 -5.10775018e-04
      -5.71710640e-04 -3.99452867e-04 -1.12906137e-05 -6.32594820e-05
      -1.47982661e-04 1.47472703e-04 2.15821681e-04 -1.58305684e-05
      -2.28854362e-04 -1.82459509e-04 8.92815024e-06 3.68531182e-05
      7.32585613e-05 1.71419262e-04 2.12232044e-05 -9.08106958e-05
      -5.10222853e-05 -6.12110307e-05 2.13563151e-04 6.86454587e-05
      4.80496441e-04 5.41533751e-04 2.68637115e-04 2.12437866e-04
      1.98819427e-04 1.75821144e-04 1.25659426e-04 4.91407009e-05
      2.30799575e-04 2.46806449e-04 1.17836666e-04 3.31406423e-04
      2.68111005e-04 1.47268773e-04 3.98530829e-04 6.31557254e-04
      5.27606986e-04 1.52868495e-04 -1.45360216e-04 -3.07867740e-04
      -3.45449254e-04 -3.45371285e-04 -2.97320694e-05 1.85575074e-04
      -1.46663151e-04 -1.85510798e-04 -5.17289329e-04 -5.90280455e-04
      -4.77817171e-04 -1.73960216e-04 -1.63552817e-04 -1.27464227e-04
      -9.00613522e-05 5.50558943e-05 2.18786430e-04 -1.83449025e-04
      -1.42991248e-05 5.06379220e-05 5.02166586e-05 1.38100208e-04
      1.01584512e-04 3.66895547e-04 3.31591116e-04 1.68174316e-04
      5.43745737e-05 -7.13439003e-05 6.18310441e-05 3.40564089e-04
      5.04245167e-04 3.65536485e-04 3.85101070e-04 4.39706520e-04
      2.51006393e-04 2.91288598e-04 1.96049776e-04 2.36350446e-04
      1.16540285e-07 -9.49052410e-05 2.08913509e-04 3.52169329e-04
      1.73873676e-04 3.87204724e-04 5.36609732e-04 4.66091733e-04
      2.95285805e-04 -4.72702914e-06 -1.15182615e-04 -1.64752608e-04
      -2.41999442e-04 -5.37902000e-04 -4.87669575e-04 -2.28250894e-04
      -3.10320902e-04 -3.12331133e-04 -5.20046335e-04 -6.74129929e-04
      -6.79921999e-04 -4.71445965e-04 -3.74911033e-04 -1.39355965e-04
      -3.93072514e-05 9.62200793e-05 2.66564544e-04 -3.52706115e-06
      -6.68031134e-05 -1.68373863e-05 -1.41529574e-06 -3.46585898e-06
      1.21179073e-04 1.03756218e-04 1.05931256e-04 -1.07466767e-04
      -2.72895064e-04 -1.34858827e-04 4.93092812e-05 2.63708615e-04
      4.56974114e-04 4.65268618e-04 3.81586666e-04 2.69841548e-04
      3.00052197e-04 2.21856986e-04 2.21268245e-04 1.02450271e-04
      -5.09436140e-05 -2.17942361e-04 -1.39829499e-04 -1.04657383e-05
      2.88038300e-05 3.02055472e-04 5.30659396e-04 4.78538772e-04
      4.57925256e-04 2.00667098e-04 -1.17328862e-04 -1.63427205e-04
      -2.70365796e-04 -4.02753387e-04 -2.19503738e-04 -2.44935363e-04
      -4.47552506e-04 -7.42110948e-04 -6.81539706e-04 -6.78962737e-04
      -5.25365176e-04 -3.72191193e-04 -2.17645429e-04 2.63805778e-05
      -5.86112947e-05 -5.10783721e-05 -1.14779716e-04 -1.83484590e-04
      -2.79641070e-04 -2.32297592e-04 -2.10979590e-04 -2.16362721e-04
      -1.37178416e-04 5.98905172e-05 -8.10412894e-05 -1.41407203e-04
      -3.24230728e-04 -3.01009539e-04 -8.33994491e-05 3.60887148e-04
      2.89204792e-04 2.10426457e-04 1.00216639e-04 2.42986847e-04
      2.34859981e-04 2.19830777e-04 2.43731614e-04 2.88500218e-04
      1.06508633e-04 1.32493014e-05 2.25166499e-04 2.54477665e-04
      1.41079610e-04 8.70166186e-05 3.99318553e-04 3.98676144e-04
      2.91718345e-04 1.80427654e-04 -1.04401879e-04 -4.46558552e-04
      -4.21454170e-04 -5.22156479e-04 -4.62398370e-04 -4.22031648e-04
      -6.69004570e-04 -6.25920307e-04 -5.53864927e-04 -5.49845689e-04
      -4.37107374e-04 -3.64734355e-04 -1.07009429e-04 -1.67839971e-04
      -5.61147572e-05 -1.28426458e-04 -1.53655667e-04 -3.52008967e-04
      -4.03407757e-04 -4.25646314e-04 -5.29664278e-04 -4.95046668e-04
      -4.15047602e-04 -2.41112197e-04 -2.20207858e-05 -2.65815033e-04
      -5.32423437e-04 -4.55238944e-04 -6.39151403e-05 1.33563386e-04
      3.05711437e-04 2.50159152e-04 3.09720868e-04 2.41299422e-04
      3.00243933e-04 2.51532067e-04 2.62582325e-04 1.73778870e-04
      2.45830219e-04 1.25802893e-04 1.20443030e-04 1.35370938e-04
      1.08404623e-04 9.09465889e-05 1.00831785e-04 1.80758274e-04
      -5.10150639e-05 -2.53762380e-04 -3.83753446e-04 -5.33939223e-04
      -3.44661734e-04 -4.86015255e-04 -3.78549885e-04 -3.68625508e-04
      -4.51975502e-04 -6.00079191e-04 -6.50251168e-04 -6.58054079e-04
      -4.43276600e-04 -4.37270472e-04 -2.46396405e-04 -2.34997235e-04
      -1.32243644e-04 -8.19935158e-05 2.41130438e-05 -1.18430158e-04
      -1.49322965e-04 -2.88525247e-04 -3.69953661e-04 -4.53400920e-04
      -4.84069809e-04 -2.71334284e-04 -2.57161126e-04 -1.93601707e-04
      -4.46403952e-04 -5.06876269e-04 -2.74016784e-04 -2.96735780e-05
      2.01535819e-04 1.95643268e-04 1.71057458e-04 2.91929377e-04
      3.47098074e-04 2.94484576e-04 1.57245973e-04 1.32188536e-04
      9.60760663e-05 2.53485108e-04 1.97031506e-04 3.34649143e-04
      1.47410770e-04 1.66085185e-04 1.61814460e-04 3.53289914e-04
      1.78822869e-04 6.62869425e-05 -2.97848281e-04 -2.65526469e-04
      -3.07621929e-04 -3.85495892e-04 -3.27123969e-04 -4.74020693e-04
      -4.95795277e-04 -6.06321904e-04 -5.09960577e-04 -6.74980809e-04
      -4.58119001e-04 -1.64314682e-04 -1.51275817e-04 -2.20185932e-04
      -2.56882719e-04 -1.93880507e-04 -4.79119190e-05 -1.87885569e-04
      -3.07219540e-04 -4.54062945e-04 -2.95381498e-04 -6.31483970e-04
      -5.24479197e-04 -4.70459316e-04 -3.11112002e-04 -4.04518709e-04
      -5.05347096e-04 -4.59516072e-04 -3.26010952e-04 -5.85128037e-05
      3.66187567e-04 1.39358162e-04 1.65917809e-04 7.76285815e-05
      1.58971437e-04 8.92891694e-05 4.01840407e-05 -5.99627638e-05
      6.50738875e-05 1.22323516e-04 1.80744210e-05 1.41952361e-04
      1.63899953e-04 3.14826641e-04 1.19743207e-04 1.13048751e-04
      -1.43234269e-04 -2.63334165e-04 -2.06270255e-04 -2.54452490e-04
      -1.16418392e-04 -2.10774000e-04 -2.16850123e-04 -2.26900112e-04
      -3.54830961e-04 -3.96388088e-04 -4.49229381e-04 -4.94060398e-04
      -1.90425868e-04 -2.42876777e-04 3.71507311e-04 2.45808187e-04
      2.30201622e-04 2.72105273e-04 1.47224913e-04 -5.99228588e-05
      -2.77585583e-04 -2.72587349e-04 -2.93566263e-04 -5.37185697e-04
      -6.16921228e-04 -4.44531237e-04 -1.62842451e-04 -3.22969339e-04
      -3.05946072e-04 -4.60099807e-04 -3.78479977e-04 -1.43851212e-04
      1.96743626e-04 3.83482402e-04 2.94162252e-04 3.29058385e-04
      2.36738939e-04 2.20442875e-04 1.78101924e-04 2.97100691e-04
      2.58524000e-04 1.67747159e-04 8.99958686e-05 2.38788387e-04
      1.15441406e-04 3.45896260e-04 1.23355552e-04 2.05085991e-04
      -1.97806774e-04 -1.47703162e-04 -3.23647808e-04 -3.85661609e-04
      -3.73619376e-04 -3.08125891e-04 -2.18212619e-04 -2.65870971e-04
      -1.62284123e-04 8.87356146e-06 -1.88106103e-04 -5.99610757e-05
      1.28342654e-04 7.61557676e-05 3.56770033e-04 3.63650906e-04
      2.79212079e-04 1.65111211e-04 1.42564939e-04 1.38593081e-04
      1.35959315e-04 4.87849429e-05 -5.42589078e-06 -8.03985022e-05
      -1.76229267e-04 -1.20308396e-04 -1.96331766e-05 -9.62385457e-05
      2.03713389e-05 -4.81038005e-05 1.37901065e-04 1.95545319e-04
      2.98559433e-04 3.08396062e-04 2.66814692e-04 2.29951111e-04
      2.35130210e-04 2.26752618e-05 -7.83659289e-06 1.56908078e-04
      1.57320304e-04 7.98272158e-05 -6.11371943e-05 1.95534754e-04
      3.04515357e-04 3.33608914e-04 1.61814474e-04 3.19034007e-04
      -6.28853304e-05 -4.06733569e-04 -5.86338050e-04 -5.98009618e-04
      -4.51025640e-04 -1.64024314e-04 -5.96646714e-05 1.32245477e-04
      4.48355160e-04 4.73153719e-04 1.94525419e-04 3.71622358e-04
      3.62627179e-04 2.85159098e-04 3.91190406e-04 7.77529960e-04
      2.48112628e-04 1.17312375e-04 -2.28409172e-05 -1.81139942e-04
      -8.00125999e-05 -4.17607407e-05 -3.52520874e-05 -1.33396985e-04
      -1.59249190e-04 3.19723513e-05 7.04577133e-07 -3.02042808e-05
      1.25523729e-05 1.52061148e-05 1.61198677e-05 8.35110332e-05
      1.81777155e-04 2.79262575e-04 3.88144399e-04 3.35940917e-04
      2.13904554e-04 2.07051577e-04 1.38772157e-04 5.99314662e-05
      1.10076064e-04 1.59191681e-04 2.87329283e-04 1.06431326e-04
      1.84877063e-04 3.34299693e-04 4.38461837e-04 4.65686520e-04
      2.11695267e-04 -2.49835775e-05 -1.52892419e-04 -8.19734851e-05
      3.08956369e-05 -3.96145952e-05 -2.05203483e-04 -5.17648405e-05
      7.72952117e-05 6.30521827e-05 1.41898156e-04 3.71856499e-04
      2.75309343e-04 4.62626980e-04 5.63160749e-04 5.80334920e-04
      6.67244080e-04 5.64099813e-04 3.52354837e-04 1.73092543e-04
      6.83759208e-05 5.57998283e-05 9.12089745e-05 -7.10747190e-05
      -6.61533777e-05 1.55886064e-05 -1.04974288e-05 -2.28029487e-04
      -2.50177516e-04 -1.24034195e-04 2.15558448e-05 4.39223513e-05</_>
    <_>
      5.93722325e-05 8.61001681e-05 9.61192709e-05 7.02894176e-05
      6.16679681e-05 1.92402549e-05 -2.27962155e-05 -5.83447327e-05
      -3.54540971e-05 3.11785925e-06 4.08964297e-05 6.05160358e-06
      -3.22559972e-05 -7.79572292e-05 -1.14409166e-04 -1.00475554e-04
      -9.56066360e-05 -9.61549013e-05 -7.54394059e-05 -6.40496000e-05
      -5.82023058e-05 -6.97921423e-05 -1.60352756e-05 -7.10501772e-05
      -6.90983288e-05 -6.84287079e-05 -6.63516112e-05 -3.70632370e-05
      1.36370390e-05 -1.49808766e-05 3.09144925e-05 3.83278348e-05
      9.10888120e-05 1.52588385e-04 2.09911697e-04 2.02897078e-04
      1.85117417e-04 1.89349274e-04 2.03714910e-04 3.14591074e-04
      3.34890181e-04 2.75514525e-04 2.82077439e-04 2.28626421e-04
      2.66136805e-04 1.95319662e-04 1.31000008e-04 1.37132738e-04
      7.45292709e-05 1.16596435e-04 2.97316001e-05 5.71372366e-05
      8.22151997e-05 7.69002581e-05 5.25827891e-05 3.64292864e-05
      4.54747569e-05 6.62338934e-05 5.04890777e-05 5.54332073e-05
      -4.20153410e-05 -4.72333013e-05 -1.24373706e-04 -1.56515700e-04
      -1.44386402e-04 -1.35154114e-04 -1.31499750e-04 -1.31243301e-04
      -1.08038279e-04 -4.60047559e-05 -6.15340105e-05 -8.30125064e-05
      -1.31277455e-04 -7.96294989e-05 -7.18966476e-05 -8.41130095e-05
      -7.50326508e-05 -1.30984472e-05 -7.76185407e-05 9.19893125e-07
      2.16703593e-05 1.15454459e-04 1.48166466e-04 1.68822880e-04
      2.29334226e-04 1.39036172e-04 1.81487238e-04 2.98107945e-04
      2.90910713e-04 3.09086405e-04 2.69586686e-04 2.61621142e-04
      2.99654203e-04 2.07754187e-04 2.29729150e-04 2.55880790e-04
      5.98044026e-05 5.10842765e-05 1.39053609e-05 -2.64904302e-05
      -7.28620807e-06 3.11603580e-05 6.43008752e-05 8.30116114e-05
      1.18402990e-04 1.47810017e-04 1.29127482e-04 8.66471382e-05
      -8.01194255e-06 -8.15649837e-05 -9.08758739e-05 -4.93582993e-05
      -9.23321495e-05 -1.53322952e-04 -1.45374885e-04 -1.33078167e-04
      -8.37414191e-05 -7.80275514e-05 -6.67574059e-05 -1.05418272e-04
      -9.08148431e-05 -6.77291027e-05 -8.34630628e-05 -8.42987138e-05
      -1.24504222e-04 -1.09255510e-04 -9.88793690e-05 -6.59842190e-05
      -5.23868475e-05 4.47920229e-06 5.53406935e-05 1.23943275e-04
      1.57537463e-04 7.42225238e-05 1.98889102e-04 2.45624542e-04
      2.61625362e-04 2.43305258e-04 2.55177496e-04 2.77009822e-04
      2.75643513e-04 2.23538897e-04 2.58903281e-04 2.36845925e-04
      9.38792291e-05 9.42393453e-05 -3.69026952e-06 -4.42327774e-07
      -1.09565535e-05 -6.74998882e-05 2.48048455e-05 1.10108354e-04
      5.26707408e-05 5.00960232e-05 6.88153596e-05 7.55195651e-05
      -3.98445227e-05 -9.35704520e-05 -1.57145230e-04 -1.59603020e-04
      -1.03149650e-04 -1.01803693e-04 -1.06384636e-04 -9.76808806e-05
      -9.71232803e-05 -9.40864411e-05 -7.79392722e-05 -9.87527310e-05
      -1.20898338e-04 -1.30949527e-04 -1.12880560e-04 -9.36480501e-05
      -9.71715708e-05 -1.25985971e-04 -1.20282435e-04 -1.22396057e-04
      -8.36106337e-05 -3.45746848e-05 -9.51961965e-07 5.58542924e-05
      8.79207655e-05 1.54507026e-04 2.21791328e-04 2.43156042e-04
      2.46981042e-04 2.69738637e-04 2.90817756e-04 2.45693634e-04
      2.18908215e-04 2.43871240e-04 2.14891232e-04 2.25365628e-04
      5.98707920e-05 7.01625540e-05 3.52171664e-05 6.45072350e-06
      -5.35026766e-06 -3.83790939e-05 -2.24858486e-05 -2.77721720e-05
      5.63192662e-05 9.00057858e-05 1.28541898e-04 9.14184275e-05
      2.61759578e-05 -6.41931706e-07 -3.59248479e-05 -1.27365172e-04
      -9.43115010e-05 -1.37116192e-04 -1.51192842e-04 -1.54234993e-04
      -1.11489768e-04 -8.66857081e-05 -8.72567180e-05 -1.00677062e-04
      -8.03750154e-05 -1.02608035e-04 -1.16404612e-04 -1.28671323e-04
      -1.54467052e-04 -1.54610447e-04 -1.26976796e-04 -1.38911113e-04
      -1.45761966e-04 -7.93911386e-05 -4.91755873e-06 -5.95975598e-06
      5.15794891e-05 1.70248866e-04 2.48034601e-04 2.58382730e-04
      2.46844196e-04 2.58035579e-04 2.63506954e-04 2.49632460e-04
      2.48547236e-04 2.67824391e-04 2.86592200e-04 1.90864972e-04
      6.02709224e-05 6.71702001e-05 5.21985712e-05 8.48217242e-05
      -1.16204110e-05 -1.43017655e-06 8.18968765e-05 8.04440060e-05
      6.45031687e-05 4.35493239e-05 1.41610944e-04 1.67253835e-04
      7.12460969e-05 -3.08929630e-05 -5.94114026e-05 -1.06015155e-04
      -7.23742196e-05 -9.47102453e-05 -7.18607698e-05 -5.25686228e-05
      -5.14892854e-05 -6.38722577e-06 -1.74861689e-05 -7.62007039e-05
      -4.90527200e-05 -6.47568522e-05 -6.78346041e-05 -1.05897801e-04
      -9.67183223e-05 -1.28767526e-04 -1.91212865e-04 -2.20875881e-04
      -2.04100099e-04 -1.33926675e-04 -9.09802548e-05 5.02782723e-06
      4.66524034e-05 1.12856891e-04 1.72281318e-04 2.05044285e-04
      2.41436952e-04 2.26712626e-04 2.64996808e-04 2.70455086e-04
      2.17956753e-04 2.51422520e-04 2.95462931e-04 2.46716052e-04
      3.90794121e-05 1.16332543e-04 1.21321769e-04 2.17725137e-05
      9.32598996e-05 3.34890428e-05 7.28217492e-05 8.33353770e-05
      5.82352804e-05 3.71271635e-05 5.33242201e-05 7.94303014e-06
      -3.35832265e-05 -7.96519380e-05 -5.13086925e-05 -4.05601968e-05
      -4.47442180e-05 -2.50374596e-05 -3.00488246e-05 3.08909584e-05
      3.85158419e-05 4.36215923e-05 -5.86121996e-06 -5.08444828e-05
      -7.23363410e-05 -1.10414076e-04 -1.45695798e-04 -2.00604598e-04
      -1.76596688e-04 -1.87465077e-04 -1.86123914e-04 -2.03569725e-04
      -1.95671571e-04 -1.40792748e-04 -9.37615332e-05 -5.80739143e-05
      1.59969968e-05 8.12415092e-05 1.94632230e-04 2.00543000e-04
      2.67002528e-04 2.66019633e-04 2.43772593e-04 2.84234789e-04
      2.37245971e-04 2.62244343e-04 2.61271518e-04 2.18940448e-04
      -2.05259585e-05 6.43722669e-05 9.12076794e-05 1.11852387e-04
      1.13966526e-04 9.54693751e-05 1.05135434e-04 1.45626409e-05
      1.04188775e-05 -6.58268400e-05 -4.99534399e-05 -5.61419765e-05
      -1.30014261e-04 -1.64590252e-04 -1.50890148e-04 -1.45602549e-04
      -7.72747517e-05 -5.45455987e-05 -6.96249044e-05 -4.61448435e-05
      -2.68181361e-06 -8.50497872e-06 5.29824683e-06 -8.97926657e-06
      -6.71517773e-05 -1.53790752e-04 -2.45607807e-04 -2.68445408e-04
      -2.87716015e-04 -2.97242688e-04 -2.75244936e-04 -2.72424804e-04
      -2.32083956e-04 -2.02886687e-04 -1.61728021e-04 -1.51650718e-04
      -9.40368845e-05 9.43820055e-07 1.09321380e-04 1.18521049e-04
      2.09756487e-04 2.25074691e-04 2.73400510e-04 2.47117190e-04
      2.62015761e-04 3.30871204e-04 3.13625962e-04 2.70894932e-04
      -2.56842986e-06 7.94130028e-05 1.53558049e-05 5.41774352e-05
      7.96747190e-05 4.58973482e-05 3.24352186e-05 -2.62389058e-05
      -1.04584477e-04 -1.68626473e-04 -1.32629124e-04 -1.62321536e-04
      -1.77151494e-04 -2.38257984e-04 -2.28051722e-04 -2.55939318e-04
      -1.61439937e-04 -4.97218025e-05 -4.82660143e-05 -4.20039987e-06
      -5.31378173e-05 -4.14835085e-06 3.59615988e-05 7.55046722e-06
      -3.73448565e-05 -6.58877543e-05 -2.31768747e-04 -2.92147859e-04
      -2.76612845e-04 -2.46131502e-04 -2.98495142e-04 -3.27569433e-04
      -3.04720801e-04 -2.36622742e-04 -2.10837490e-04 -1.94800348e-04
      -1.27579566e-04 -5.36932857e-05 4.77195063e-05 1.01922851e-04
      1.53456276e-04 1.99036163e-04 2.62202055e-04 2.76383129e-04
      2.83855741e-04 3.86789499e-04 2.78420892e-04 2.30496473e-04
      -5.62726882e-06 1.34545362e-05 1.41169294e-05 4.80756898e-05
      5.53847713e-05 -1.91787840e-05 -5.47038289e-05 -1.08063825e-04
      -1.82384640e-04 -2.38277615e-04 -1.73327469e-04 -2.05708580e-04
      -2.20819435e-04 -2.45722767e-04 -1.74724832e-04 -1.50958178e-04
      -1.94570181e-04 -2.34263265e-04 -9.21178071e-05 -2.11962106e-05
      -1.94602926e-05 2.00540253e-05 3.72054383e-05 3.04107980e-05
      7.79359179e-05 2.27733653e-05 -7.15880451e-05 -2.36502005e-04
      -2.15472013e-04 -3.12900607e-04 -3.31977091e-04 -3.42530082e-04
      -4.26096172e-04 -3.54965974e-04 -2.92756216e-04 -2.67372670e-04
      -1.85003504e-04 -7.69799080e-05 3.55856500e-05 4.06661020e-05
      1.60172014e-04 1.75007706e-04 2.07936915e-04 2.79933825e-04
      2.80868728e-04 3.01025837e-04 1.87106896e-04 1.75662062e-04
      -1.24027065e-06 4.99685302e-05 7.02113030e-05 1.13022099e-04
      6.23777339e-07 7.00821329e-05 2.22747749e-05 -3.40556544e-05
      -9.75629373e-05 -1.42998775e-04 -1.90700885e-04 -2.07998077e-04
      -1.73504581e-04 -1.89284998e-04 -2.37522952e-04 -2.22109360e-04
      -2.03379255e-04 -1.04481202e-04 -1.05233848e-04 -6.99710581e-05
      -1.55078415e-05 2.81534976e-05 1.07195585e-04 6.36375044e-05
      1.08477339e-04 3.16139631e-05 -4.68853432e-05 -1.40430246e-04
      -2.68012605e-04 -3.07875540e-04 -3.44204047e-04 -3.71241709e-04
      -3.05802270e-04 -3.67341767e-04 -3.15380312e-04 -2.82310415e-04
      -2.29088735e-04 -1.79601193e-04 -1.35415889e-04 -4.14980168e-05
      5.06637480e-05 6.64716863e-05 1.36873117e-04 1.46000835e-04
      3.02154134e-04 2.91010365e-04 1.94000851e-04 2.27024590e-04
      1.65333804e-05 -1.25394254e-05 4.48187820e-05 8.70457734e-05
      6.03057379e-05 7.42868142e-05 4.73623186e-05 -1.93598844e-05
      -1.25511113e-04 -1.43317186e-04 -7.29590101e-05 -1.11226182e-04
      -1.05707288e-04 -1.03449536e-04 -1.28672080e-04 -1.48622436e-04
      -9.86819578e-05 -4.59633702e-05 -4.11249603e-05 -3.11278127e-05
      -6.87258489e-06 9.96076051e-05 1.37062118e-04 1.16162264e-04
      1.98573674e-04 1.60797921e-04 6.20892533e-05 -8.88313152e-05
      -1.28697895e-04 -2.07457619e-04 -3.18577047e-04 -3.62837833e-04
      -3.61532497e-04 -4.32151661e-04 -4.30604705e-04 -3.38474201e-04
      -2.65316135e-04 -2.35967396e-04 -1.34307964e-04 -9.94774673e-05
      2.32593356e-05 3.27305461e-05 7.96379682e-05 1.46693288e-04
      1.75522204e-04 1.84911769e-04 1.33891095e-04 2.14039363e-04
      8.94429540e-05 4.61530071e-05 7.63648786e-05 7.88807592e-05
      1.03879705e-04 4.22723460e-05 3.14643694e-05 -4.00248900e-05
      -8.38815395e-05 -1.10677211e-04 -1.34757836e-04 -1.44773308e-04
      -1.07756401e-04 -1.14916023e-04 -7.68130922e-05 -5.92511133e-05
      -4.71217027e-05 1.52517669e-06 6.02737382e-05 2.39672918e-05
      8.70890799e-05 1.58284514e-04 1.54288107e-04 1.89532511e-04
      2.66774441e-04 1.46797785e-04 1.35946728e-04 1.88813465e-05
      -1.23408056e-04 -1.93914733e-04 -2.28865290e-04 -3.43947613e-04
      -3.37492413e-04 -3.93221359e-04 -3.84600076e-04 -3.38574726e-04
      -2.56617554e-04 -2.02776544e-04 -1.30684915e-04 -1.24843122e-04
      3.08002382e-05 4.32120432e-05 8.22301663e-05 1.16300660e-04
      1.24799932e-04 6.79918594e-05 1.37281473e-04 2.73645303e-04
      -4.30046475e-06 1.91491072e-05 3.43325119e-05 7.15703500e-05
      1.05393512e-04 2.53208163e-05 3.53995565e-05 -3.58858924e-05
      -1.20962227e-06 -5.21966649e-05 -4.07777443e-05 -4.01928010e-05
      -2.45480041e-05 -2.88549854e-05 4.13396192e-05 7.05439306e-05
      3.75475502e-05 1.02057027e-04 1.35856273e-04 1.63066594e-04
      2.71386118e-04 2.00063805e-04 2.73158657e-04 3.34692915e-04
      2.64280650e-04 2.36626278e-04 1.93220592e-04 1.06102219e-04
      -5.89534611e-05 -1.09606604e-04 -2.64130183e-04 -3.02325818e-04
      -3.28999042e-04 -3.43031628e-04 -2.98681698e-04 -2.76098144e-04
      -2.48972035e-04 -2.11362247e-04 -1.67677834e-04 -1.07561245e-04
      -3.01980544e-05 2.48780707e-05 4.37383205e-05 1.20161851e-04
      1.01047473e-04 1.06595297e-04 6.22323132e-05 1.94136708e-04
      5.28590972e-05 1.45419290e-05 -2.47925454e-05 1.78675291e-05
      8.11217615e-05 4.36037590e-05 3.73089933e-05 -6.31695639e-06
      3.77527540e-05 2.11245715e-05 4.39097166e-05 4.43940844e-05
      8.07585311e-05 1.06390013e-04 1.43641941e-04 1.37136987e-04
      1.64639438e-04 1.87266429e-04 2.10423721e-04 2.77575222e-04
      3.67771339e-04 3.68195964e-04 3.45824286e-04 3.76023003e-04
      3.34214565e-04 2.75678001e-04 2.12974861e-04 1.11529866e-04
      1.17458749e-05 -1.07953230e-04 -2.09221966e-04 -2.45381991e-04
      -3.27460235e-04 -2.99582753e-04 -2.68844306e-04 -2.56188621e-04
      -1.92952517e-04 -1.70757950e-04 -1.08533837e-04 -1.58001669e-04
      -5.23436793e-05 2.95519712e-05 -1.50999981e-07 4.36827504e-05
      1.46484945e-05 9.06034547e-05 6.83330873e-05 1.48876701e-04
      3.23368549e-05 -2.18735058e-05 4.85750534e-05 -1.10830497e-05
      4.77777794e-05 8.17592445e-05 1.39110562e-04 1.31466702e-04
      1.20875520e-04 1.34848990e-04 1.71624662e-04 1.57042276e-04
      1.70873522e-04 2.28354140e-04 2.53035803e-04 1.75608337e-04
      2.60580186e-04 3.11388547e-04 3.05250956e-04 3.12788616e-04
      2.76858394e-04 3.68443754e-04 3.61462939e-04 3.42578802e-04
      2.55953870e-04 1.97413508e-04 1.23925391e-04 6.10576317e-05
      -7.99812551e-05 -2.32687598e-04 -2.91225268e-04 -2.71543104e-04
      -2.73645011e-04 -2.81670218e-04 -2.39836780e-04 -2.57278385e-04
      -2.66528717e-04 -2.11094419e-04 -1.04363411e-04 -1.04733968e-04
      -5.43295973e-05 -6.20951369e-06 2.98767209e-05 -4.16607654e-05
      -3.62671017e-05 5.69826043e-05 -2.53889971e-06 6.65911648e-05
      -5.37796586e-05 -9.26628345e-05 -3.98833145e-05 4.07162552e-05
      6.67075146e-05 1.06893363e-04 1.53967107e-04 1.39458280e-04
      2.13283580e-04 2.31481012e-04 1.75017136e-04 2.32006598e-04
      2.21251510e-04 2.01230272e-04 2.95060076e-04 2.13969513e-04
      2.40035763e-04 2.99409585e-04 3.51264986e-04 3.78529017e-04
      3.92794900e-04 3.23022832e-04 3.03186185e-04 2.30987338e-04
      1.99185903e-04 1.92908396e-04 8.66000701e-05 2.74336944e-05
      -1.65397592e-04 -2.19438021e-04 -2.21522758e-04 -3.16371908e-04
      -2.87718198e-04 -2.72997422e-04 -2.67082272e-04 -2.54430488e-04
      -2.48424680e-04 -2.52473459e-04 -9.53941344e-05 -1.41434517e-04
      8.97042298e-07 -1.73127246e-05 1.42996432e-05 -5.70792399e-05
      -5.31606929e-06 -3.04451223e-05 -5.89420742e-05 -2.19070216e-06
      -1.10867571e-04 -4.79075934e-05 -1.91286053e-05 9.24605556e-05
      6.30142240e-05 1.66966653e-04 2.52433820e-04 2.49345147e-04
      1.93669286e-04 2.15842985e-04 2.07765610e-04 2.04428827e-04
      2.59344932e-04 2.19351554e-04 2.72088975e-04 2.52349302e-04
      2.67460797e-04 3.22495849e-04 3.34078271e-04 3.93752096e-04
      3.00501822e-04 2.88229261e-04 2.51489138e-04 2.14013999e-04
      2.08200057e-04 1.28854139e-04 8.56896586e-05 7.54546709e-05
      -5.73349425e-05 -1.83903656e-04 -2.99270789e-04 -3.30087612e-04
      -3.07321199e-04 -2.60239089e-04 -2.45754200e-04 -2.29318597e-04
      -1.52136403e-04 -9.89883629e-05 -1.39748052e-04 -8.45789255e-05
      1.73227818e-05 2.80187196e-05 -3.79002013e-05 -5.77147584e-05
      -5.71780438e-05 -6.05286659e-05 -1.24241284e-04 -7.90474369e-05
      -1.27305539e-04 -1.18714961e-04 -6.82319151e-05 4.25606731e-06
      1.37064548e-04 1.31979818e-04 1.20503326e-04 2.40334120e-04
      2.21228969e-04 2.45852309e-04 2.34868945e-04 2.25649797e-04
      3.02179164e-04 3.54353047e-04 3.47750523e-04 3.27264570e-04
      3.36419122e-04 3.50313610e-04 3.93231778e-04 3.49745707e-04
      2.67521129e-04 2.38237786e-04 2.06826095e-04 1.39034411e-04
      1.17696334e-04 6.20545907e-05 5.17609296e-05 -1.50844671e-05
      -1.39815063e-04 -2.04260665e-04 -3.15486279e-04 -3.24533059e-04
      -3.16491496e-04 -3.36066703e-04 -3.03395267e-04 -2.58596789e-04
      -2.00144859e-04 -1.52369452e-04 -4.36644623e-05 -5.03896226e-05
      3.70125526e-05 2.57325555e-05 -2.35506013e-05 -5.42116459e-06
      -7.57997213e-06 8.68766256e-06 -4.72593674e-05 -1.56164224e-05
      -2.20734117e-04 -1.42908815e-04 -4.32141087e-06 1.38542182e-05
      4.05800929e-05 7.15778224e-05 1.57292408e-04 1.81377487e-04
      2.42307098e-04 2.70159158e-04 2.33655475e-04 2.64777831e-04
      3.07364739e-04 3.19706742e-04 3.48903879e-04 3.19367187e-04
      3.36383673e-04 3.73292685e-04 3.19690531e-04 2.42235954e-04
      2.31524435e-04 2.46698241e-04 2.09361504e-04 8.57229388e-05
      7.39201641e-05 8.08795230e-05 1.57369304e-05 -2.78738371e-05
      -1.12499409e-04 -2.16290457e-04 -2.97007762e-04 -2.92882818e-04
      -3.21210973e-04 -3.03821260e-04 -3.06856906e-04 -2.68534088e-04
      -2.98415223e-04 -1.92499094e-04 -8.67402341e-05 -5.95650126e-05
      1.03260041e-04 4.69972438e-05 -3.33141834e-05 4.69115912e-06
      -4.03468039e-05 -2.82747151e-05 -7.15456845e-05 -4.17805750e-05
      -2.16831962e-04 -1.28207917e-04 -1.13341317e-04 7.94071166e-05
      1.00986639e-04 1.58775292e-04 1.76216592e-04 2.22478717e-04
      2.16742570e-04 2.05941047e-04 1.71471969e-04 1.43826794e-04
      1.96990950e-04 1.84740842e-04 2.17500303e-04 2.16188957e-04
      2.16159155e-04 2.22223156e-04 2.00965442e-04 1.28101732e-04
      9.22515683e-05 1.30614950e-04 8.50015640e-05 7.95808301e-05
      5.92356191e-05 5.81673376e-05 -8.78505016e-05 -1.87656813e-04
      -1.93449814e-04 -3.20470484e-04 -3.67926375e-04 -3.43734486e-04
      -2.93652643e-04 -2.87312665e-04 -2.22376082e-04 -2.33869127e-04
      -2.41319824e-04 -1.57448143e-04 -5.90554591e-05 1.53087112e-05
      1.00284895e-04 1.24803464e-05 -2.19113899e-05 3.49061302e-05
      4.94303931e-05 -1.91373765e-05 -1.44320496e-04 -1.05188527e-04
      8.85413283e-06 -3.66550230e-05 -5.45996227e-06 6.98497461e-05
      1.35670867e-04 2.12347528e-04 1.81305862e-04 2.30615959e-04
      1.89004219e-04 1.44032558e-04 1.58867333e-04 2.10382379e-04
      2.11744191e-04 1.51519853e-04 1.67875303e-04 1.98419890e-04
      1.89626924e-04 1.96128240e-04 1.54207912e-04 7.07930230e-05
      7.87500103e-05 4.45059504e-06 2.40692207e-05 -1.57158611e-05
      -1.07415372e-06 -6.86236235e-05 -1.12386449e-04 -1.36131552e-04
      -2.28866877e-04 -2.96725455e-04 -1.92160282e-04 -3.60807142e-04
      -3.42592393e-04 -2.68470641e-04 -2.86069117e-04 -2.36358435e-04
      -1.48703199e-04 -9.54527131e-05 -9.08249694e-06 -2.51397450e-05
      1.09225302e-05 1.10047531e-05 -4.55943291e-06 1.91081435e-05
      7.96257591e-05 6.23931919e-05 -1.56612019e-04 -1.36746457e-04
      2.78729440e-05 -1.37079514e-05 1.29266145e-05 5.20284702e-05
      1.83618380e-04 2.27228171e-04 1.27284002e-04 1.42650300e-04
      1.88246733e-04 1.76755275e-04 1.68261176e-04 1.81733674e-04
      1.83790253e-04 1.71618813e-04 1.86798017e-04 1.74958055e-04
      1.55408183e-04 8.87907881e-05 9.09154187e-05 -3.80780330e-05
      5.26521362e-05 2.88967783e-07 -1.12318658e-05 -1.12297232e-06
      -1.02053957e-04 -1.39486190e-04 -1.83361248e-04 -1.84536359e-04
      -2.38108230e-04 -2.81349930e-04 -3.57827230e-04 -3.28043243e-04
      -2.33094004e-04 -2.19013353e-04 -2.23365249e-04 -1.31689521e-04
      -3.89826382e-05 -8.67769086e-06 6.28681155e-05 1.46293960e-05
      5.61736051e-05 2.59011949e-06 -1.32056030e-05 1.26140476e-05
      1.07262358e-05 3.53455725e-05 -1.38281408e-04 -1.16155927e-04
      6.33325035e-05 5.32120830e-05 1.81463911e-05 5.34765168e-05
      1.40745338e-04 1.88013597e-04 1.60198600e-04 1.45511542e-04
      1.49905740e-04 1.68678293e-04 1.68783663e-04 1.02308295e-04
      2.28442033e-04 1.54292444e-04 6.86046478e-05 1.18224714e-04
      5.16327200e-05 5.11561593e-05 3.60110171e-05 -8.40106259e-06
      6.39873833e-05 -2.02152496e-05 -7.55475558e-05 -9.08548027e-05
      -1.28843036e-04 -1.66197759e-04 -1.83852448e-04 -2.44693190e-04
      -2.13931417e-04 -2.67205207e-04 -2.35417261e-04 -1.90800376e-04
      -1.93508022e-04 -9.21341270e-05 -7.41356562e-05 -5.76685197e-05
      -4.90584534e-05 -3.59981595e-06 -3.48421017e-05 2.57236729e-06
      4.30814944e-05 6.93655384e-05 1.06756568e-04 7.38255767e-05
      4.07376065e-05 2.30109936e-06 -1.10315246e-04 -1.51477157e-04
      7.36697402e-05 -4.00788704e-05 -1.77825059e-05 6.72235110e-05
      1.25881488e-04 1.62539611e-04 2.30438804e-04 1.74504457e-04
      1.65572899e-04 1.61508433e-04 1.63312245e-04 1.79089460e-04
      1.45144237e-04 1.51205240e-04 9.13438198e-05 6.21029685e-05
      3.91165158e-05 2.86731192e-05 1.77542006e-05 3.07880036e-05
      -2.76881492e-05 -1.06275183e-04 -1.31007881e-04 -1.78812596e-04
      -2.01407660e-04 -2.08051599e-04 -1.50275606e-04 -1.45728191e-04
      -1.58373034e-04 -1.51991757e-04 -7.54382127e-05 -7.04281847e-05
      -2.03478543e-04 -6.41000443e-05 -1.35389913e-04 1.05273457e-05
      6.01158681e-05 6.61377999e-05 9.35384815e-05 1.05306528e-04
      7.46423393e-05 1.36194823e-04 1.31541296e-04 1.41386932e-04
      8.67866329e-05 1.08032118e-05 -9.94262664e-05 -1.59606585e-04
      6.74728290e-05 1.36447043e-05 -5.99411078e-06 3.48777467e-05
      7.47401136e-05 5.11737271e-05 1.13220522e-04 1.49299784e-04
      1.52064604e-04 1.60272655e-04 1.44026882e-04 2.28984994e-04
      1.71676671e-04 1.39350333e-04 2.21258437e-04 1.59112649e-04
      1.57405899e-04 1.01208359e-04 3.69850277e-05 6.11448195e-06
      -1.87531277e-05 -3.42296225e-05 -4.24482969e-05 -2.28287652e-04
      -1.98879337e-04 -1.78282949e-04 -1.33117050e-04 -3.79550693e-05
      -6.36104160e-05 -1.25500417e-04 -1.17734045e-04 -1.12862384e-04
      -7.20178068e-05 -7.11324246e-05 -1.36848384e-05 1.06436819e-05
      1.72083764e-05 6.95380149e-05 1.83761076e-04 1.45941216e-04
      1.68640821e-04 1.50824693e-04 1.64458514e-04 1.42637247e-04
      8.96744314e-05 3.67827743e-05 -9.97936368e-05 -1.22344136e-04
      7.85367811e-05 -2.34134914e-05 -2.35778498e-05 4.57571377e-06
      2.84779508e-05 5.28329001e-05 2.78692114e-05 7.67138117e-05
      1.25950173e-04 1.39259733e-04 1.30884422e-04 1.00083627e-04
      7.71582636e-05 9.09262890e-05 7.62345298e-05 9.51733091e-05
      2.94402598e-05 1.47580886e-05 1.97753125e-05 -6.00423409e-05
      -9.06670975e-05 -6.00562962e-05 -7.38892486e-05 -1.48480976e-04
      -1.52250519e-04 -1.33583642e-04 -5.01028153e-05 -7.96938984e-05
      -6.06128124e-05 -5.52080382e-06 -7.04163394e-05 -3.24821267e-05
      -9.74728573e-06 3.66226709e-06 5.33775674e-05 7.81106573e-05
      9.59749814e-05 1.49112646e-04 1.95301021e-04 1.98338865e-04
      1.74550121e-04 1.79842464e-04 1.32991408e-04 6.66162450e-05
      3.52181160e-05 8.78706214e-06 -9.81882331e-05 -7.96119712e-05
      1.05236373e-04 6.09436720e-05 -5.11959342e-07 3.41546256e-05
      2.52828631e-05 -1.55692069e-05 2.90049047e-05 1.44191028e-04
      1.37349649e-04 1.52398003e-04 1.80390736e-04 1.37105075e-04
      3.10465366e-05 1.96713099e-08 -1.01480737e-05 3.60898193e-05
      1.44986725e-05 -6.31949515e-05 -1.08594249e-04 -5.48897224e-05
      -1.62459601e-05 -7.03021869e-05 -7.08201915e-05 -1.58135183e-04
      -1.13363007e-04 -7.49611354e-05 -4.56169437e-05 -4.97826622e-05
      -9.30835304e-05 -6.34400567e-05 -6.07912043e-05 -6.77440084e-06
      7.84585666e-07 4.18285053e-05 1.17868476e-04 1.24478087e-04
      1.98299604e-04 1.84237011e-04 1.72180153e-04 1.91978688e-04
      2.04114418e-04 1.68138664e-04 1.18598262e-04 1.28275540e-04
      8.43754315e-05 4.99536582e-05 -9.14017364e-05 -8.32306905e-05
      1.44985330e-04 8.13618972e-05 4.86560675e-05 7.18005394e-05
      7.23837438e-05 8.93092729e-05 2.47675707e-05 7.27378574e-05
      1.46394304e-04 2.12871921e-04 1.69368621e-04 9.82513229e-05
      2.95517511e-05 -6.86899511e-05 -1.05409352e-04 -6.42594896e-05
      -1.40309916e-04 -9.61103142e-05 -1.06774009e-04 -1.17713833e-04
      -8.44461028e-05 -5.55688603e-05 -1.44209798e-05 -8.61668595e-05
      -3.36190133e-05 -3.46742527e-05 -1.79932849e-05 -7.81841845e-06
      -4.12617665e-05 6.85348823e-06 1.14750728e-04 7.66494704e-05
      1.53970395e-04 1.86503137e-04 2.21514114e-04 2.54321261e-04
      2.63828464e-04 2.25808821e-04 2.51689838e-04 1.78107395e-04
      1.26226529e-04 6.98784424e-05 8.35671308e-05 7.84752920e-05
      9.68505919e-05 7.02087782e-05 -9.51357069e-05 -1.42440782e-04
      1.71657695e-04 1.13987226e-04 1.33556066e-04 1.13145536e-04
      1.13668597e-04 9.75381336e-05 4.46768645e-05 7.13092231e-05
      7.39595052e-05 1.26411134e-04 1.08705448e-04 4.46170343e-05
      -5.01740105e-05 -1.55576068e-04 -2.36022883e-04 -1.68210041e-04
      -1.98559748e-04 -2.29624333e-04 -1.37075403e-04 -2.28368750e-04
      -6.49853537e-05 -4.80619710e-05 -3.27910639e-05 -9.25091736e-05
      -2.58889741e-05 -5.55607403e-05 -3.89425950e-05 1.61965218e-05
      7.70729894e-05 6.67032728e-05 1.25908758e-04 1.91011248e-04
      2.84917711e-04 2.86707247e-04 2.52092257e-04 2.48892989e-04
      2.88330077e-04 2.39494751e-04 3.06481204e-04 2.07688703e-04
      1.14205708e-04 9.07060530e-05 1.26002094e-04 1.58830793e-04
      1.49313346e-04 1.02579026e-04 1.76974918e-05 -5.63845060e-05
      2.37555869e-04 7.99550835e-05 5.64758811e-05 1.01803380e-04
      1.93617248e-04 1.76546921e-04 1.51698798e-04 5.07574041e-05
      5.13705309e-05 9.57676239e-05 1.23837672e-05 -7.70708939e-05
      -1.54549401e-04 -2.22952134e-04 -2.69774289e-04 -2.92318175e-04
      -2.57919048e-04 -2.40342953e-04 -2.59401859e-04 -2.25038908e-04
      -1.58424882e-04 -5.04472264e-05 -2.99946860e-05 -1.30834960e-04
      -4.60393785e-05 -1.30539620e-05 4.18471245e-05 1.13132031e-04
      1.21212739e-04 1.73206645e-04 1.49488376e-04 2.48414784e-04
      2.46142008e-04 2.80444889e-04 2.66456947e-04 2.56535219e-04
      2.69109325e-04 3.01627879e-04 3.05657100e-04 2.82537192e-04
      1.67475067e-04 1.48941894e-04 1.35425842e-04 1.25645616e-04
      1.18381548e-04 1.00969206e-04 1.88232643e-05 -1.59240353e-05
      1.51054628e-04 3.97171716e-05 5.53363388e-05 1.16606476e-04
      1.24147686e-04 1.36934308e-04 7.77627138e-05 5.47724412e-05
      -1.38018213e-05 -1.66387417e-05 -5.94666635e-05 -1.51161948e-04
      -2.10347309e-04 -3.20136140e-04 -3.28674447e-04 -3.18012055e-04
      -2.66936404e-04 -2.48724042e-04 -1.58017414e-04 -1.64293393e-04
      -1.98136608e-04 -1.54302645e-04 -7.76711167e-05 -9.62380072e-05
      -5.40639849e-05 -8.55233084e-05 1.73177270e-07 4.54695510e-05
      7.53681816e-05 1.55353875e-04 1.67816368e-04 2.03193471e-04
      2.88510550e-04 2.39803034e-04 2.49165605e-04 2.55944178e-04
      2.71840254e-04 2.90321273e-04 1.94409644e-04 2.06836747e-04
      1.72690648e-04 1.75414592e-04 1.79885988e-04 1.09146014e-04
      7.37373048e-05 5.17454246e-05 3.26317531e-05 -1.04923674e-05
      1.15240968e-04 2.02506653e-05 5.99582054e-05 2.69323464e-05
      6.40788785e-05 1.32434056e-04 1.33090551e-04 -6.19893672e-06
      -5.49984688e-05 -9.35915014e-05 -1.26371815e-04 -1.85747514e-04
      -2.95628590e-04 -3.67868925e-04 -3.88848042e-04 -3.78957309e-04
      -2.43472678e-04 -1.94554697e-04 -2.13447653e-04 -2.43734801e-04
      -2.17414708e-04 -1.48113264e-04 -7.05191924e-05 -1.17234988e-04
      -4.76452406e-05 -2.26850862e-05 4.40557924e-05 5.21163965e-05
      6.20609426e-05 1.44675054e-04 6.61917657e-05 7.66871308e-05
      8.97399514e-05 9.33095071e-05 1.39777825e-04 1.82173826e-04
      1.71480031e-04 1.69564359e-04 1.86437435e-04 2.10428087e-04
      1.79762777e-04 1.64735466e-04 1.71949883e-04 1.25346691e-04
      1.42902543e-04 1.10222099e-04 1.09026128e-04 1.04602375e-04
      1.21054276e-04 4.22223602e-05 6.51405717e-05 9.75383227e-05
      9.84017679e-05 1.08720029e-04 6.42651503e-05 1.61492226e-05
      -1.04614628e-04 -1.92187945e-04 -1.96356355e-04 -2.38572116e-04
      -3.47770809e-04 -3.76798038e-04 -3.69131711e-04 -3.99809942e-04
      -3.18256178e-04 -1.86343983e-04 -2.06776152e-04 -2.01635121e-04
      -1.79959694e-04 -7.01136305e-05 -3.86369975e-05 -1.10061424e-04
      -3.24041866e-05 3.22789347e-05 3.25162255e-05 4.82019786e-05
      5.86799833e-05 1.52689710e-04 1.15793635e-04 5.25291689e-05
      2.37983599e-07 4.56400303e-05 8.22008806e-05 6.25014000e-05
      1.07796368e-04 1.19395678e-04 1.56732058e-04 1.39924407e-04
      1.60098120e-04 1.68564497e-04 1.70009866e-04 1.81531490e-04
      1.28309912e-04 1.07377622e-04 4.77544490e-05 1.43663332e-04
      8.34866441e-05 8.02556096e-05 5.24704883e-05 1.14060233e-04
      8.24788876e-05 1.30684275e-04 1.43039942e-04 2.97276911e-05
      1.06201378e-05 -6.88940199e-05 -1.46170263e-04 -1.96811045e-04
      -2.46002164e-04 -2.63855647e-04 -3.09501047e-04 -3.22284352e-04
      -2.74190970e-04 -1.85688783e-04 -1.72584158e-04 -1.68102750e-04
      -9.67409142e-05 -3.02147746e-05 -2.79550695e-05 -3.93287373e-05
      1.87823698e-05 1.10877016e-04 1.24315906e-04 1.14920193e-04
      7.07924191e-05 1.09869245e-04 9.13614058e-05 -5.53460552e-07
      -1.74701370e-06 -6.89149692e-06 -2.53529397e-05 1.06622838e-05
      1.90295414e-05 1.24565428e-04 1.39651282e-04 1.36181639e-04
      4.82141986e-05 6.37354533e-05 1.24546379e-04 1.05050822e-04
      7.42311968e-05 1.19585486e-04 6.87832580e-05 1.61467120e-04
      1.68671395e-04 7.49746323e-05 9.98115938e-05 1.10596957e-04
      2.06532975e-04 1.70706044e-04 6.21912768e-05 5.31828118e-05
      -5.16541004e-05 -5.71312485e-05 -1.45822967e-04 -2.23510200e-04
      -2.88135867e-04 -2.83459842e-04 -2.61745008e-04 -2.01132338e-04
      -2.04685130e-04 -7.65298246e-05 -8.56237239e-06 -6.05194000e-05
      -5.28150704e-05 3.80099445e-05 7.56197551e-05 4.66670963e-06
      1.74472443e-05 7.74595756e-05 2.14716711e-05 5.45162511e-05
      3.76073513e-05 7.75786521e-06 1.24237386e-06 -5.76816274e-05
      -9.54813731e-05 -1.16981995e-04 -3.86049578e-05 -4.16869225e-05
      9.16903957e-07 9.44775093e-06 3.47254172e-05 8.57327832e-05
      -8.76483409e-06 3.63974214e-05 4.21393124e-05 6.62326784e-05
      -1.63530858e-05 7.17410076e-05 1.36034112e-04 1.91246305e-04
      1.00067125e-04 5.07738405e-05 1.26151470e-04 9.39415695e-05
      1.54068068e-04 5.74265905e-05 -4.64070617e-05 -7.97349567e-05
      -1.19465491e-04 -1.96559835e-04 -1.76156042e-04 -2.63648544e-04
      -3.61134735e-04 -2.71938130e-04 -2.18960238e-04 -2.20136528e-04
      -1.17701056e-04 -3.64667321e-05 1.40610518e-05 2.91518663e-05
      2.93365047e-05 -9.57083284e-06 5.11511007e-06 -5.91400858e-05
      -1.36693334e-05 -4.50040861e-05 -2.35707303e-05 -4.00037170e-05
      -1.12396097e-04 -7.16448922e-05 -1.76184374e-04 -2.03905103e-04
      -2.37492568e-04 -2.62235670e-04 -1.88439401e-04 -1.99312941e-04
      -1.68048093e-04 -1.00311911e-04 -7.13985884e-08 5.35627623e-05
      -9.29639918e-06 1.52805678e-05 -3.41060986e-05 -8.45083705e-05
      -1.81438772e-05 3.46826600e-05 9.28981099e-05 9.44356725e-05
      1.87043479e-04 2.13452658e-04 1.64301833e-04 2.09513018e-04
      1.68340295e-04 1.69825471e-05 -2.01784605e-05 -4.21305886e-05
      -8.54866012e-05 -1.25563951e-04 -1.63032761e-04 -2.02738796e-04
      -3.27428686e-04 -3.04053712e-04 -2.00529554e-04 8.37188927e-05
      4.42651333e-04 1.73135631e-04 -3.93572600e-06 7.71595660e-06
      -3.68767433e-05 -3.66317872e-05 -2.24003634e-05 -8.85067275e-05
      -9.52299233e-05 -6.73128307e-05 -1.30321860e-04 -1.23622638e-04
      -2.34374529e-04 -2.57593434e-04 -2.03167889e-04 -2.76017934e-04
      -3.62404622e-04 -3.14318779e-04 -3.67885223e-04 -3.29940434e-04
      -3.04979185e-04 -2.14095213e-04 -1.25378254e-04 -1.19917364e-04
      -7.60317416e-05 -6.92458998e-05 -7.07784711e-05 -7.85109514e-05
      -6.80852463e-05 -5.35078943e-05 5.15146239e-05 3.87871369e-05
      2.87508476e-04 2.69325188e-04 2.58526881e-04 2.67008494e-04
      1.23017337e-04 4.36682276e-05 -5.33063758e-05 -7.05293278e-05
      -8.42039954e-05 -1.36626957e-04 -1.64480545e-04 -2.18791829e-04
      -1.99130620e-04 -2.03792340e-04 -1.01824946e-04 9.83054360e-06
      4.21285476e-05 -5.82973371e-05 1.04506453e-05 6.13372640e-06
      -2.54914594e-05 -7.61454139e-05 -5.58169304e-05 -8.80347507e-05
      -1.21370365e-04 -9.33775373e-05 -1.37293406e-04 -1.92331834e-04
      -2.27261859e-04 -2.03359290e-04 -2.48414988e-04 -2.85818824e-04
      -3.21578496e-04 -3.22959240e-04 -3.49421665e-04 -3.57511220e-04
      -2.85216869e-04 -2.45978823e-04 -1.97168192e-04 -1.78624032e-04
      -1.66972357e-04 -1.06882559e-04 -4.26180013e-05 -3.81349528e-05
      4.06365834e-05 -1.47574265e-05 -4.40488429e-06 2.05649558e-05
      2.25159631e-04 2.13272855e-04 1.47059021e-04 1.50429085e-04
      5.92125907e-05 5.34288010e-05 5.44934264e-05 -4.19492353e-05
      -1.30591041e-04 -1.31635505e-04 -5.78951149e-05 -8.33464583e-05
      -1.75504334e-04 -7.47829035e-05 -5.22321534e-06 1.29101381e-05
      2.42270908e-05 1.12520265e-05 5.27145603e-05 2.15505697e-05
      1.70959047e-05 -4.77209906e-05 1.00490070e-05 -1.16393756e-04
      -1.07832355e-04 -4.36913106e-05 -4.74221270e-05 -1.62160708e-04
      -2.14446874e-04 -2.12611500e-04 -7.92704086e-05 -1.58668146e-04
      -2.40918962e-04 -3.02591507e-04 -2.73113168e-04 -2.52602913e-04
      -2.31749393e-04 -2.16465967e-04 -2.00454509e-04 -1.56297116e-04
      -1.55461879e-04 -1.08084598e-04 -1.12327754e-04 -1.32507324e-04
      -6.48621572e-05 -4.61548480e-05 1.20530340e-05 4.82092692e-05
      2.84947717e-04 1.62038690e-04 1.34820206e-04 1.72097833e-04
      5.37843807e-05 -1.95767825e-05 4.83960264e-07 -6.84398110e-05
      -7.00602250e-05 -1.63170582e-04 -1.75631751e-04 -1.85147335e-04
      -2.03565913e-04 -1.44016652e-04 -1.05585845e-04 -1.00166282e-04
      -2.41495763e-05 3.82218241e-06 3.21012340e-05 1.02240978e-04
      7.28757441e-05 6.51445589e-05 3.00094634e-05 -4.58102259e-05
      -3.36183475e-05 -6.78774450e-06 -3.08600866e-05 -2.29933594e-05
      -7.37946684e-05 -3.90947098e-05 -1.36716306e-04 -5.85027410e-05
      -9.05619308e-05 -1.69671504e-04 -2.70722463e-04 -2.51138874e-04
      -2.14500702e-04 -2.36069653e-04 -2.13569278e-04 -1.50538501e-04
      -9.84527724e-05 -6.18304284e-06 -1.75370042e-06 -2.11806291e-05
      -1.57634022e-05 -3.26107074e-05 2.15264699e-05 8.52784651e-05
      2.26354779e-04 1.77483991e-04 1.68833751e-04 1.46251070e-04
      5.25253308e-05 1.46274469e-05 -8.50047581e-06 -3.09314091e-05
      -6.41505467e-05 -9.92404093e-05 -9.91336055e-05 -1.86693331e-04
      -1.89938321e-04 -1.65564139e-04 -9.12750984e-05 -1.18711418e-04
      -8.55170001e-05 -7.05865677e-05 -2.81606390e-06 2.91609231e-05
      -4.49565414e-05 -4.09122767e-05 -4.06631698e-05 -1.42012344e-04
      -1.33461959e-04 -1.54091846e-04 -8.02540817e-05 -1.24648097e-04
      -1.61840682e-04 -1.44616366e-04 -1.18396893e-04 -1.24932441e-04
      -1.20290337e-04 -1.77186783e-04 -1.25468650e-04 -2.07469668e-04
      -1.96601555e-04 -1.85406258e-04 -2.02894575e-04 -1.83752782e-04
      -1.03433609e-04 -2.77776162e-05 8.41069123e-05 1.04554070e-04
      6.67117056e-05 1.49265534e-05 5.33983984e-05 8.23181399e-05
      1.37497162e-04 7.83991054e-05 9.55313371e-05 1.17773867e-04
      7.35500271e-06 1.05239878e-05 1.88646948e-06 -6.61631784e-05
      -9.20758539e-05 -1.52238325e-04 -1.14345712e-04 -1.27243853e-04
      -1.33451264e-04 -1.40859178e-04 -7.99928093e-05 -1.37330600e-04
      -8.04211377e-05 -1.12568894e-04 3.15489092e-06 8.17772161e-05
      4.14631795e-05 4.59430994e-05 1.87466303e-05 -9.46611544e-05
      -8.12648432e-05 -5.20549002e-05 -3.60745180e-05 -2.75112670e-05
      -3.58276920e-05 -7.12829424e-05 -5.42085472e-05 -7.03303813e-05
      -1.01147678e-04 -9.46942237e-05 -9.84146318e-05 -1.53939036e-04
      -1.36461909e-04 -1.64091645e-04 -9.50791000e-05 -1.05141065e-04
      -5.66077360e-05 1.17951349e-05 7.51821572e-05 8.55725521e-05
      3.05271278e-05 -1.80960178e-05 4.11949004e-05 2.53877370e-05
      5.00429378e-05 5.84687768e-05 1.77158272e-05 2.30521327e-05
      -1.82814063e-06 -1.72749096e-05 -6.76628042e-05 -5.31858241e-05
      -7.63151984e-05 -8.80377265e-05 -1.04354847e-04 -8.62127199e-05
      -1.39723488e-04 -1.57780334e-04 -1.46234161e-04 -1.37145180e-04
      -2.64024002e-05 -7.41429221e-06 -6.20867504e-05 3.56637320e-05
      1.16663332e-05 8.06076714e-05 4.20578581e-05 -5.18302368e-05
      6.48073501e-06 -3.96106734e-05 -5.07292716e-05 -5.76067177e-05
      -4.49772670e-05 -1.68677907e-05 -4.78238035e-05 -6.13852826e-05
      -1.18829645e-04 -8.70956283e-05 -9.94590591e-05 -1.11861860e-04
      -1.11823276e-04 -1.43665893e-04 -6.50411166e-05 -9.24125416e-05
      -6.97602154e-05 -6.01048305e-05 1.04259088e-05 4.77309222e-05
      1.20515644e-04 6.58679928e-05 6.18813647e-05 9.60156249e-05
      6.20858773e-05 4.79401351e-05 4.06056206e-05 3.67515604e-05
      -2.62144495e-05 -4.49048239e-05 -3.73125622e-05 -5.39204266e-05
      -7.88622929e-05 -1.67296421e-05 -2.45151459e-05 -4.83484619e-05
      -4.98557492e-05 -3.15136822e-05 -4.59823568e-05 -6.36321784e-05
      -4.53190569e-06 -4.64889963e-05 -3.86967531e-06 9.49430250e-05
      1.31132052e-04 1.03546627e-04 7.58847964e-05 1.33848052e-05
      2.17725119e-05 8.67161580e-05 -3.07017467e-06 1.67804228e-05
      6.16238831e-05 2.98753657e-05 2.35621837e-06 -6.64449617e-05
      -3.21461011e-05 1.78604557e-06 6.52159724e-06 2.30372953e-05
      4.51861270e-05 2.17903780e-05 2.11698625e-05 3.45171939e-05
      -3.29219365e-05 1.62927736e-05 6.06027170e-05 1.86780580e-05
      1.08925553e-04 5.21720976e-05 5.11824983e-05 6.70061854e-05
      3.68984183e-05 4.75774614e-05 7.28725354e-06 -1.64717330e-05
      1.65861566e-05 4.46720551e-05 6.08619157e-05 3.68581168e-05
      2.61779551e-05 -1.86453344e-05 -9.38314770e-05 -8.24343260e-06
      -2.89247710e-05 1.66090431e-05 4.13820417e-05 7.09121741e-05
      1.31192137e-05 2.24132491e-05 2.72125271e-05 6.16440957e-05
      1.43739438e-04 1.68683706e-04 1.48331412e-04 1.11447865e-04
      1.17937292e-04 1.42505378e-04 6.98950535e-05 6.83141334e-05
      7.86996898e-05 1.41695200e-05 2.13915919e-05 1.13511569e-05
      8.65051916e-05 6.95304479e-05 -2.56383896e-06 4.35881957e-05
      1.10880406e-04 9.28344889e-05 4.81602474e-05 3.52037787e-05
      -1.52762568e-05 -3.70157181e-06 -1.98235239e-06 4.44906800e-05
      5.39376088e-05 1.04636092e-05 -1.29267382e-05 -1.68384613e-05
      1.47433057e-05 6.09227618e-06 -1.63693385e-05 -5.81116874e-05
      6.81799283e-05 6.37741541e-05 2.72477737e-05 -1.16367873e-05
      -1.57749746e-05 -1.16595358e-04 -9.91222187e-05 -4.76785681e-05
      -4.40843578e-05 1.36283552e-05 -2.44138664e-06 2.57022948e-05
      1.70577441e-05 1.50288779e-05 -1.83384054e-06 3.11962322e-05
      7.57566377e-05 1.37583687e-04 1.40704651e-04 1.26169922e-04
      1.04282401e-04 9.12828982e-05 6.93508991e-06 8.51344812e-05
      7.81592607e-05 4.84642878e-05 -1.21045650e-05 -2.19461599e-05
      9.14725024e-06 2.93364756e-05 6.76681448e-05 -4.73704858e-06
      1.24324943e-05 2.99395815e-05 5.45969815e-05 -3.05487924e-06
      -1.42848530e-05 -5.92896431e-05 -1.94409604e-05 3.29411632e-05
      2.15394830e-05 1.43039761e-05 5.62138412e-05 5.28393393e-05
      -2.54279730e-05 -2.04862808e-05 -4.49870968e-05 -1.07086807e-05
      -2.27327491e-05 2.37295335e-05 -1.19490833e-05 -1.23821746e-05
      -7.06127175e-05 -4.14177084e-05 -1.44825535e-05 -1.02011873e-05
      -7.50561412e-06 1.33101767e-05 5.72520257e-05 1.41682147e-04
      3.67585744e-05 7.62846548e-06 2.63643487e-05 9.80188779e-05
      5.95950041e-05 7.25962600e-05 1.09132561e-04 9.03721666e-05
      6.04265006e-05 7.53281420e-05 1.00314443e-04 8.08198311e-05
      6.27048139e-05 6.11314317e-05 6.39068749e-05 1.26445502e-05
      9.78076787e-06 6.84457991e-05 4.71384519e-05 -1.85022736e-06
      1.69400701e-05 2.34147046e-05 3.97376716e-05 -2.06776040e-05
      -5.22218797e-05 2.65198696e-06 -1.89852981e-05 3.95158531e-05
      1.74355591e-05 -2.38688281e-05 9.64970022e-05 1.32617351e-04</_>
    <_>
      -1.64585610e-04 -5.95837955e-05 -1.27887051e-05 -4.43945792e-05
      -2.54359620e-04 -3.05152993e-04 -1.33842637e-04 2.18484838e-05
      -1.57099494e-05 1.78168273e-06 8.32485312e-05 1.88354505e-04
      2.89455376e-04 1.43836747e-04 1.11715934e-04 9.38250596e-05
      1.71417676e-04 2.87234259e-04 3.51302268e-04 3.80845362e-04
      3.97859490e-04 3.60433623e-04 3.53289302e-04 3.08971095e-04
      2.79475236e-04 2.38794848e-04 1.42163684e-04 -1.59936326e-06
      8.33561571e-05 2.81897301e-05 1.03234786e-04 -3.86037464e-05
      7.37249575e-05 2.08273486e-04 1.93376385e-04 1.71809806e-04
      2.57647131e-04 3.20348976e-04 4.53375309e-04 5.95156103e-04
      6.91823254e-04 6.35724165e-04 7.29799794e-04 5.57276479e-04
      4.51356638e-04 3.79872072e-04 2.28939811e-04 9.74467839e-05
      1.11588806e-05 4.54798392e-05 -4.83575968e-05 -7.61416186e-06
      -5.74916303e-05 -3.80797355e-05 -3.82435173e-05 2.09706210e-04
      2.55274441e-04 1.56529684e-04 8.18685876e-05 2.48018070e-04
      2.11247723e-04 3.20843654e-04 3.31665302e-04 3.55842873e-04
      3.83365841e-04 4.35340713e-04 3.86211672e-04 3.62506311e-04
      3.45455541e-04 3.54771764e-04 2.39013534e-04 1.43300189e-04
      2.97815077e-05 6.81073434e-05 1.02951170e-04 -1.10895809e-04
      -1.79226103e-04 -1.22812562e-04 -9.66584703e-05 -1.62558608e-05
      -3.75328564e-05 7.24809943e-05 1.41826007e-04 4.55642949e-05
      6.02735527e-05 5.49401520e-05 1.21858611e-04 1.95545595e-04
      2.21003502e-04 4.00892925e-04 4.29298438e-04 3.07150563e-04
      2.85555085e-04 3.51765804e-04 4.54276800e-04 3.42768733e-04
      1.45097612e-04 3.56958713e-04 3.59143014e-04 4.03508893e-04
      4.89577884e-04 4.80509567e-04 1.94849519e-04 1.01641439e-04
      2.68772827e-04 4.65706049e-04 3.15960671e-04 3.17220634e-04
      1.73519365e-04 -4.39475916e-05 5.44509066e-06 3.07927949e-05
      1.31531589e-04 1.62287790e-04 2.07116609e-04 1.87437850e-04
      1.69008927e-04 1.02121317e-04 1.50550477e-04 1.36713015e-05
      -5.72534518e-05 -5.17345179e-05 -1.37696363e-04 -7.79262118e-05
      -1.94689594e-04 -2.39477115e-04 -6.95772032e-05 -1.24819135e-05
      -2.36290598e-05 -1.77656129e-05 -5.62968708e-05 5.00717761e-07
      -5.77435385e-05 -1.55594360e-04 -1.42395511e-04 3.04248933e-05
      1.63846533e-04 3.71588016e-04 4.62119293e-04 4.29781998e-04
      5.10961050e-04 4.50585474e-04 5.09574020e-04 3.90161702e-04
      1.57233299e-04 2.62420770e-04 1.15795068e-04 1.33582478e-04
      2.61208130e-04 1.83419019e-04 1.95861794e-04 2.64693430e-04
      2.32932754e-04 2.78769003e-04 1.32091620e-04 1.60016309e-04
      3.68377296e-05 -8.54611062e-05 -9.98735268e-05 -1.34540358e-04
      -1.71816209e-05 9.65467843e-05 1.88759615e-04 1.82331351e-04
      2.35078900e-04 2.67059222e-04 2.24662857e-04 1.06889405e-04
      -7.18645533e-05 -1.23800201e-04 -8.22545699e-05 -9.30356109e-05
      -1.65463687e-04 -1.65931124e-04 -3.58023390e-05 -1.31045317e-05
      1.43655961e-06 -5.78412000e-05 -2.30456237e-04 -1.62276643e-04
      -1.09341039e-04 -8.80206935e-05 1.35057315e-04 4.39411611e-04
      4.43568017e-04 5.80274791e-04 5.46880066e-04 6.67313754e-04
      5.74112986e-04 3.50185961e-04 2.99820211e-04 3.07901588e-04
      3.56835895e-04 2.50143639e-04 2.34081472e-05 -1.06936175e-04
      -1.61211734e-04 -7.29145759e-05 1.76009169e-04 2.07646546e-04
      3.75110685e-04 3.57404380e-04 4.07413376e-04 1.89298618e-04
      -2.38904486e-05 -2.33059676e-04 -2.96376558e-04 -3.01654538e-04
      -2.12725688e-04 -2.00681767e-04 -2.31633647e-04 -2.03909629e-04
      -1.44033824e-04 -1.06782463e-04 -8.49538410e-05 -1.71515167e-05
      -5.72327990e-05 -5.87075665e-05 2.25867134e-05 -4.11612689e-07
      -5.55230654e-05 -1.44361111e-04 -1.41347016e-04 -1.12626629e-04
      -1.58235751e-04 -2.65148323e-04 -1.82091113e-04 -2.12627725e-04
      -1.52766283e-04 -1.07282440e-05 8.42182271e-05 5.13790728e-05
      2.16549131e-04 2.70875840e-04 3.28106165e-04 2.70400080e-04
      3.48509173e-04 2.46208103e-04 1.91794607e-04 9.36012148e-05
      6.21365441e-04 6.63558487e-04 3.64919135e-04 1.19112672e-04
      -1.24330967e-04 -1.92122316e-04 -7.93268046e-05 4.07464177e-05
      7.76834349e-05 1.12210953e-04 1.20538652e-05 -6.14402015e-05
      -1.84566365e-04 -4.06530191e-04 -4.79565671e-04 -4.78897069e-04
      -4.53157321e-04 -3.18177481e-04 -1.97082903e-04 -9.72279013e-05
      -1.77752911e-04 -9.13190233e-05 -9.83498467e-05 -3.05204565e-04
      -2.08473677e-04 -1.16971285e-04 -1.97926172e-04 -2.29834885e-04
      -2.23271054e-04 -2.79525178e-04 -3.70518072e-04 -3.00292013e-04
      -2.22104587e-04 -1.00559490e-04 5.62823152e-05 8.78604624e-05
      -7.82348525e-06 -7.12105393e-05 -3.70995008e-06 5.56837767e-05
      -3.02937624e-05 9.24479173e-05 3.38994811e-04 3.69375426e-04
      2.79796310e-04 2.29930665e-04 1.67778242e-04 2.93234807e-05
      6.22555788e-04 8.84779962e-04 7.01232697e-04 3.12900840e-04
      1.08388092e-04 -4.78096154e-05 -2.44052244e-05 -1.38939475e-04
      -1.03843340e-04 -1.24874598e-04 -1.05251514e-04 -2.95272388e-04
      -4.10013745e-04 -4.74515924e-04 -3.50365852e-04 -3.36243829e-04
      -3.25599278e-04 -3.13441240e-04 -2.19259280e-04 -5.98454099e-05
      2.15183209e-05 1.08773544e-04 -3.07802438e-05 -6.67031054e-05
      -2.35539337e-04 -3.40847328e-04 -4.11313405e-04 -5.28089004e-04
      -5.50225261e-04 -5.53486578e-04 -4.76438552e-04 -2.41934627e-04
      -1.06970139e-04 -4.12969202e-05 3.64567532e-04 2.37896209e-04
      1.23750768e-04 5.58639404e-05 8.60227665e-05 -5.40500951e-05
      6.31016446e-05 1.09269102e-04 2.06194352e-04 1.72638902e-04
      1.13152761e-04 5.25350843e-05 2.71487370e-05 -9.56090662e-05
      3.51093186e-04 4.79206967e-04 5.03483345e-04 5.88755589e-04
      4.85712924e-04 4.70592116e-04 4.25694394e-04 2.21257244e-04
      2.23794137e-04 1.10103065e-05 -1.83918717e-04 -2.69033073e-04
      -4.61771357e-04 -5.70293865e-04 -4.92904743e-04 -4.00115387e-04
      -3.72111943e-04 -2.21500028e-04 -5.46415977e-05 -1.87354781e-05
      1.26649364e-04 1.03090955e-04 7.77439054e-05 1.16841338e-05
      -1.44469246e-04 -1.76016940e-04 -3.76200827e-04 -4.41298151e-04
      -4.08306892e-04 -4.46958526e-04 -3.93371884e-04 -2.28486853e-04
      -1.04410014e-04 7.42113189e-05 4.99018235e-04 4.03884158e-04
      3.79151315e-04 3.15474317e-04 2.72950070e-04 2.05482720e-04
      4.22222278e-04 4.64678247e-04 5.42708498e-04 6.73848495e-04
      5.61568886e-04 5.31897822e-04 2.76692386e-04 1.47263330e-04
      2.80373526e-04 2.48361292e-04 1.35031238e-04 1.44879828e-04
      1.35263603e-04 1.45401355e-04 3.23257787e-04 3.33006901e-04
      3.19202285e-04 4.00236349e-05 -7.42062912e-05 -3.26973910e-04
      -5.29010897e-04 -5.07016259e-04 -4.88138234e-04 -5.38742112e-04
      -3.49127688e-04 -1.28476458e-04 -8.24525559e-05 -3.51037961e-05
      -5.25503310e-05 5.39494249e-05 1.44710852e-04 -5.80942033e-05
      -1.07823791e-04 -1.19697426e-04 -3.60230944e-04 -5.61473018e-04
      -5.63677400e-04 -4.72962391e-04 -3.40050057e-04 -2.68857402e-04
      -1.46484570e-04 -1.68692946e-04 6.52175659e-05 3.27724585e-04
      3.29735980e-04 3.29900678e-04 3.55788070e-04 3.54659307e-04
      4.25898819e-04 3.82440368e-04 5.19972469e-04 5.28930221e-04
      5.51536621e-04 5.57039282e-04 4.60591604e-04 2.21940092e-04
      3.52586881e-04 2.32512859e-04 1.75842826e-04 1.06984960e-04
      7.63893986e-05 4.96052671e-05 2.13283303e-04 2.87516770e-04
      2.02952069e-04 -1.74494460e-04 -2.91145378e-04 -3.40876781e-04
      -4.03116894e-04 -5.10862446e-04 -5.17614244e-04 -5.18674904e-04
      -5.78149396e-04 -4.97146626e-04 -2.28103745e-04 -1.50925858e-04
      -9.69483008e-05 -7.22821060e-05 -6.45846958e-05 -1.28531799e-04
      -8.31619691e-05 -1.72238331e-04 -2.07542224e-04 -3.29143106e-04
      -3.78949102e-04 -4.60733136e-04 -3.89439956e-04 -3.04874091e-04
      -2.00653594e-04 -1.05287545e-04 1.32197223e-04 2.66671472e-04
      4.44720266e-04 5.07616845e-04 4.96466004e-04 2.83840316e-04
      3.80637444e-04 3.33394593e-04 5.92324475e-04 5.72758552e-04
      3.98347329e-04 3.81208811e-04 2.42768612e-04 1.79887109e-04
      5.40011024e-05 3.72994655e-05 -1.35425289e-05 4.71314779e-05
      2.72426787e-05 3.54970514e-04 3.54324409e-04 3.98433040e-04
      2.37977743e-04 7.69000544e-05 -2.00597678e-05 -2.00309645e-04
      -4.21684264e-04 -6.23634260e-04 -5.89537958e-04 -5.92069526e-04
      -4.47486498e-04 -3.52046482e-04 -2.40340712e-04 -1.64680663e-04
      -1.92787382e-04 -1.94964494e-04 -2.85787741e-04 -4.04442282e-04
      -3.94245202e-04 -4.00747609e-04 -3.63595085e-04 -4.39823692e-04
      -5.27654251e-04 -7.41600234e-04 -7.15386705e-04 -6.86557381e-04
      -5.72573743e-04 -4.76495363e-04 -3.48691508e-04 -1.11251284e-04
      8.11304344e-05 2.46742478e-04 4.57006128e-04 5.57281252e-04
      5.68980875e-04 6.51082955e-04 6.72956987e-04 5.23606373e-04
      5.80798252e-04 4.80275805e-04 3.60389415e-04 3.67368251e-04
      1.47145183e-04 4.13109192e-05 1.23056205e-04 2.48946279e-04
      2.37230386e-04 2.76898732e-04 3.93249997e-04 5.79127867e-04
      1.23325706e-04 -1.20031422e-04 -3.75831150e-05 -6.19306666e-05
      -3.14069825e-04 -4.65897640e-04 -5.55574021e-04 -5.37905144e-04
      -4.96271998e-04 -5.43420319e-04 -4.95183398e-04 -4.50755993e-04
      -4.13614820e-04 -3.12828983e-04 -3.22529813e-04 -2.29134137e-04
      -1.81659125e-04 -4.09780565e-04 -5.47462725e-04 -6.00085070e-04
      -4.49448737e-04 -4.65976133e-04 -6.24364533e-04 -5.97285398e-04
      -7.74179527e-04 -9.41426726e-04 -6.57476892e-04 -4.38230782e-04
      -2.06212251e-04 -8.27765980e-05 3.88223008e-04 1.41634460e-04
      3.00577289e-04 4.02338774e-04 4.85625147e-04 4.73042950e-04
      5.20063797e-04 5.48451382e-04 5.87206508e-04 5.23066206e-04
      3.31258605e-04 6.12982840e-05 1.26017490e-04 1.81626980e-04
      2.18253481e-04 1.91909385e-05 5.48348362e-05 8.78072242e-05
      2.16640492e-05 -3.87832115e-05 -2.53611099e-04 -3.18621635e-04
      -3.84021347e-04 -6.01030188e-04 -6.54849864e-04 -5.13469975e-04
      -4.60354931e-04 -3.67163942e-04 -3.32254247e-04 -3.30364739e-04
      -3.30628362e-04 -3.28144553e-04 -2.55781779e-04 -4.97822839e-05
      -9.41856342e-05 -2.40780864e-04 -2.72055186e-04 -3.70161782e-04
      -3.76214477e-04 -3.30458948e-04 -4.17849515e-04 -5.61398920e-04
      -6.61897007e-04 -7.69674429e-04 -7.39785493e-04 -7.56235095e-04
      -4.54937981e-04 -3.62754537e-04 -1.90657345e-04 -1.51925531e-04
      2.63996015e-04 1.93392785e-04 2.43587987e-04 3.46103450e-04
      4.66126396e-04 3.73598916e-04 4.23848105e-04 5.28611883e-04
      1.94463690e-04 1.98823574e-04 1.79420837e-04 2.28842953e-04
      2.57551059e-04 1.49007567e-04 1.32138870e-04 -2.25358394e-06
      -2.71189056e-05 -1.07210188e-04 -3.31717543e-04 -2.82565656e-04
      -2.73707265e-04 -3.07978713e-04 -1.92339663e-04 -2.40082154e-04
      -1.35862691e-04 -2.10686077e-04 -2.15278953e-04 -1.97607849e-04
      -3.03430606e-05 -9.36831493e-05 -8.25530442e-05 1.30753513e-04
      4.10596294e-05 -5.33441162e-05 -1.22260753e-04 -9.28455702e-05
      -2.01540548e-04 -1.03615013e-04 -3.58110119e-04 -4.01273719e-04
      -4.68833605e-04 -4.51830419e-04 -4.35097812e-04 -4.46966558e-04
      -3.82769300e-04 -3.54705466e-04 -2.47220596e-04 -7.25611753e-05
      1.60250493e-04 1.12385409e-04 3.19947838e-04 5.18341025e-04
      5.14318352e-04 4.70363069e-04 3.07291863e-04 4.73657652e-04
      2.01398987e-04 2.29031255e-04 1.70055151e-04 1.51381653e-04
      9.00989035e-05 6.44007087e-05 1.64199999e-04 8.83066532e-05
      8.63253881e-05 -9.62892955e-05 -4.04233870e-05 -5.71398641e-06
      -1.13606213e-04 -1.45973623e-04 -1.83112366e-04 -1.02866194e-04
      -1.49004036e-05 -1.25331542e-04 -1.52857072e-04 -2.28922538e-04
      -1.25223247e-04 -9.83730497e-05 -1.03775768e-04 9.41385297e-05
      1.64953584e-04 3.65486812e-05 -1.96429712e-04 -2.92641140e-04
      -3.11615935e-04 -3.80744255e-04 -3.22643056e-04 -5.13251405e-04
      -5.69688214e-04 -3.64381442e-04 -4.23787453e-04 -4.97110130e-04
      -3.12972552e-04 -3.79104924e-04 -2.63443362e-04 -4.56816750e-04
      -1.57532544e-04 7.10589957e-05 2.10440936e-04 4.11549729e-04
      3.24956141e-04 4.34767542e-04 4.82773641e-04 6.07391936e-04
      2.42924245e-04 1.41782468e-04 8.92069220e-05 9.37531004e-05
      1.69856678e-04 1.85404802e-04 2.65860406e-04 3.26931913e-04
      2.55336839e-04 6.45881619e-06 -1.07258129e-04 -1.86685051e-04
      -9.43347477e-05 -7.33293055e-05 -1.46839200e-04 2.00150098e-05
      -5.23786039e-05 -1.09832843e-04 -8.00004782e-05 1.96828260e-05
      -7.70853148e-05 -4.54490073e-05 1.63205783e-04 2.79775297e-04
      1.97515139e-04 1.29046646e-04 -2.16333996e-04 -3.50230228e-04
      -4.21826320e-04 -5.28014381e-04 -6.50639005e-04 -7.25365244e-04
      -6.73706643e-04 -5.28476899e-04 -4.52790322e-04 -2.03456249e-04
      -7.80114933e-05 -1.27096529e-04 -4.54805588e-04 -4.99506714e-04
      -4.12348745e-04 -7.11271859e-05 9.81452758e-05 1.25142178e-04
      9.59821409e-06 2.48609256e-04 3.55214550e-04 4.86946316e-04
      -7.78598696e-05 3.02722674e-05 -4.54345172e-05 1.47020983e-04
      2.09247126e-04 1.93298125e-04 1.30315690e-04 1.99925344e-05
      6.85719497e-05 -1.10931796e-04 -2.90862896e-04 -1.23172009e-04
      2.11032639e-05 -3.75945703e-04 -2.17155757e-04 -2.32212318e-04
      4.56779781e-05 1.88840917e-04 1.66973783e-04 2.00447030e-04
      1.59971270e-04 3.06793459e-04 3.75887699e-04 4.95092478e-04
      5.18182351e-04 3.12449905e-04 -1.02586746e-04 -3.07316979e-04
      -4.57259826e-04 -6.12160424e-04 -7.03278405e-04 -8.36617022e-04
      -8.02798895e-04 -6.62124366e-04 -5.78057894e-04 -2.63283087e-04
      -1.59445379e-04 -3.13723052e-04 -4.11732093e-04 -5.08607656e-04
      -3.64773150e-04 -3.06814560e-04 -3.55237426e-05 -8.06500702e-06
      1.34179145e-05 3.81472564e-05 2.55791441e-04 4.89960948e-04
      8.40925932e-05 1.27753272e-04 1.50888867e-04 2.05371223e-04
      1.47563915e-04 6.10967763e-05 1.61893637e-04 4.07319931e-05
      2.02229858e-05 2.83273448e-06 -1.83928729e-04 -2.10533733e-04
      -1.10607893e-04 -1.76224523e-04 1.81250361e-05 3.19382743e-05
      2.47778837e-04 3.20347055e-04 2.74198595e-04 2.70831195e-04
      3.61318642e-04 4.05315630e-04 7.24025711e-04 9.01854190e-04
      8.84431356e-04 5.57095860e-04 3.23398883e-04 -5.53843929e-05
      -3.00902670e-04 -4.34566900e-04 -7.01763958e-04 -8.58954503e-04
      -8.97393445e-04 -7.18454947e-04 -5.29244717e-04 -4.10539069e-04
      -2.79247033e-04 -1.48624415e-04 -4.61860036e-04 -5.45546704e-04
      -2.99843639e-04 -2.22363931e-04 -2.93432793e-04 -1.63375196e-04
      -9.37770747e-05 8.53376114e-05 1.71170279e-04 3.98504402e-04
      8.32594233e-05 1.40436881e-04 1.43684229e-04 1.46542487e-04
      1.18213291e-04 1.49660045e-04 7.48848834e-05 2.67634226e-04
      3.18580482e-04 1.24103608e-04 -6.08250557e-05 -9.88554311e-05
      4.94573942e-05 2.44380644e-04 1.96528810e-04 1.64181271e-04
      3.79188015e-04 5.81679109e-04 6.85054227e-04 5.72438585e-04
      5.11357852e-04 5.91340067e-04 8.16873682e-04 8.90611671e-04
      9.02850064e-04 8.10078462e-04 6.62407430e-04 3.51253722e-04
      2.99879994e-05 -2.11832608e-04 -5.00624534e-04 -7.84816628e-04
      -7.17741787e-04 -6.08832284e-04 -6.08010858e-04 -3.94322997e-04
      -2.03203424e-04 -2.14230633e-04 -1.86067802e-04 -3.40548460e-04
      -1.76987960e-04 -1.20310877e-04 -1.38766103e-04 3.52040406e-05
      1.22261254e-05 4.72412939e-05 6.39188802e-05 3.48316884e-04
      7.08059088e-05 1.47839921e-04 4.34655449e-05 -4.88766782e-05
      -6.69664951e-05 -1.36399685e-04 9.00021405e-05 1.05660656e-04
      1.40371121e-04 9.25127461e-05 -7.25253121e-05 7.36512011e-05
      1.60123702e-04 3.77891003e-04 2.67624593e-04 1.89679224e-04
      3.20207764e-04 5.57802559e-04 6.08668663e-04 2.72114703e-04
      1.90143401e-04 3.49426642e-04 4.63696721e-04 3.55016469e-04
      3.51987954e-04 4.48112783e-04 5.73269906e-04 4.52242151e-04
      2.11299543e-04 6.23186716e-05 -1.63107674e-04 -5.34004415e-04
      -6.12486328e-04 -5.18118672e-04 -6.05607638e-04 -4.51704924e-04
      -3.35473102e-04 -2.48924567e-04 -5.49207616e-05 -1.79871422e-04
      -7.41949625e-05 -1.98539899e-04 -1.22383193e-04 -4.30974524e-06
      8.59801730e-06 1.00291676e-04 2.03720105e-04 4.45911894e-04
      1.20358869e-04 1.18162498e-04 9.74727227e-05 7.59198010e-05
      -5.24410534e-05 7.09877277e-05 1.30354121e-04 8.49007192e-05
      1.10821675e-04 9.01501262e-05 -3.71498209e-06 -1.63765367e-06
      1.13230242e-04 2.56663858e-04 1.23550257e-04 -1.36483926e-04
      5.65640403e-05 4.35372844e-04 6.28559384e-04 4.60944808e-04
      1.69022576e-04 3.24028719e-04 3.77591554e-04 4.81454044e-04
      2.41222369e-04 3.42843006e-04 3.43341380e-04 2.59972527e-04
      2.75388011e-05 2.77291765e-05 -1.86735517e-04 -4.01804835e-04
      -4.60432319e-04 -3.78879922e-04 -3.91105132e-04 -3.30840965e-04
      -2.29637561e-04 -1.32288740e-04 3.67446955e-05 -9.17680518e-05
      -2.08793226e-05 -1.17242242e-04 -1.95385946e-04 -1.55306683e-04
      -5.34969731e-05 2.25503172e-04 2.32022561e-04 4.43023455e-04
      2.83575355e-04 2.76724430e-04 1.74328292e-04 7.11059402e-05
      -6.12224903e-05 -1.18903939e-04 -1.50152177e-04 8.58928688e-05
      1.32351270e-04 2.31999802e-04 2.12246778e-05 7.86076926e-05
      1.34308691e-04 2.11921026e-04 1.88829101e-04 9.96039525e-05
      5.84869740e-05 -2.28067001e-05 2.92035140e-04 4.71780048e-04
      4.92639665e-04 3.50024638e-04 2.17491935e-04 6.56774500e-04
      4.35140624e-04 2.98988016e-04 3.62645776e-04 3.91561160e-04
      1.72127839e-04 4.47759485e-05 -1.08089320e-04 -3.33495787e-04
      -4.17497009e-04 -1.93106986e-04 -1.89864746e-04 -3.18128550e-05
      4.95747008e-05 1.87414716e-05 1.36879156e-04 -8.20199639e-05
      -4.85643977e-05 -1.37940093e-04 -2.52952159e-04 -4.00021490e-05
      9.50943431e-05 2.51273130e-04 2.43933056e-04 4.11535468e-04
      2.27937649e-04 5.58246757e-05 3.42745006e-05 -1.38477335e-04
      -2.39900430e-04 -1.70415631e-04 -1.65854566e-04 -7.63108619e-05
      2.27412078e-04 6.94768823e-05 -9.41238759e-05 -8.79955624e-05
      -1.38774529e-04 -2.17315737e-05 -1.91389045e-05 -5.14591084e-05
      -3.45176632e-05 -7.73822539e-05 1.45645827e-04 4.73792054e-04
      4.44511708e-04 2.88924610e-04 2.71829893e-04 3.48699250e-04
      4.51687723e-04 3.08948976e-04 4.97555942e-04 3.44064174e-04
      2.25744632e-04 6.96795687e-05 2.06843906e-05 -5.69921067e-05
      -1.07688516e-04 3.18538478e-05 3.43214379e-05 1.93564905e-04
      3.72866896e-04 4.61167190e-04 5.43430797e-04 4.01754747e-04
      4.75168577e-04 9.24170527e-05 -6.83102189e-05 6.81484307e-05
      5.10410609e-05 1.83629032e-04 8.14190571e-05 1.33410445e-04
      3.81339371e-04 1.64817626e-04 1.40040220e-05 -1.46310413e-04
      -2.28784091e-04 -2.02292780e-04 -1.08153217e-04 6.69488281e-06
      3.34497345e-05 1.70110448e-04 1.29741078e-04 -8.29804339e-05
      2.25291049e-04 1.15112387e-04 4.25102226e-05 9.40418613e-05
      6.74785624e-05 -1.86497913e-04 1.45973390e-04 3.26307723e-04
      3.99131590e-04 7.19708041e-05 7.89204350e-05 2.10575861e-04
      3.44548665e-04 2.55977851e-04 4.11246816e-04 1.01259844e-04
      1.36762290e-04 1.55490416e-05 5.35685194e-06 -6.83573890e-05
      -1.01997815e-04 1.90347986e-04 2.74302700e-04 5.58151165e-04
      6.99045137e-04 6.04022527e-04 4.22293437e-04 -4.05664796e-05
      7.54610519e-05 1.57099086e-04 7.43346318e-05 1.49401618e-04
      1.51488639e-04 2.46081327e-04 1.70832092e-04 1.17871758e-04
      5.86011913e-04 1.51374756e-04 2.97668930e-06 -2.08926849e-05
      -8.07504257e-05 -1.04407074e-04 3.18225648e-05 1.55376823e-04
      2.00401846e-04 3.06161295e-04 3.37773876e-04 3.35328514e-04
      2.23964758e-04 3.16793332e-04 2.57448264e-04 2.72590027e-04
      1.86438803e-04 2.07960838e-04 1.32287023e-04 3.54774325e-04
      4.94261505e-04 2.33173298e-04 2.53401668e-04 2.65590963e-04
      5.92107244e-04 5.65056689e-04 6.40092068e-04 4.20590164e-04
      3.17563507e-04 6.32824522e-05 -3.04287569e-05 -2.00016453e-04
      -4.03887330e-04 -1.15112438e-04 -2.24035160e-04 1.51681888e-04
      3.34554963e-04 3.72152397e-04 2.39649075e-04 -2.78289299e-05
      1.48369683e-04 9.20506936e-05 7.96115637e-05 1.37472511e-04
      1.94379638e-04 3.73636547e-04 2.75607483e-04 2.27361292e-04
      4.75866575e-04 2.24833318e-04 7.43623286e-06 -2.06940473e-04
      -2.96792132e-04 -2.39686342e-04 8.03111761e-05 2.36184642e-04
      2.12193656e-04 1.82977921e-04 2.25799886e-04 3.49787064e-04
      2.99912499e-04 3.34888085e-04 3.72174196e-04 2.82683293e-04
      2.03446572e-04 1.48848179e-04 9.72852285e-05 3.55663477e-04
      4.16129013e-04 3.05924303e-04 2.64809874e-04 2.29955782e-04
      5.53973368e-04 3.06973845e-04 1.17906646e-04 -2.67714449e-06
      -2.06693381e-04 -4.14256530e-04 -7.03616068e-04 -8.36096413e-04
      -8.16312095e-04 -5.20102156e-04 -4.16571769e-04 -1.05774561e-04
      1.39830285e-04 2.06240511e-04 2.79866770e-04 -1.45125654e-04
      -1.04697050e-04 1.30171820e-05 3.18623817e-04 4.05350293e-04
      3.81555612e-04 3.73976625e-04 2.63061927e-04 3.53333686e-04
      3.55076481e-04 1.64213663e-04 5.93803597e-05 -1.19027580e-04
      -1.72257613e-04 -1.48831241e-04 -3.85546227e-05 1.38348012e-04
